digraph Tree {
node [shape=box, style="filled, rounded", color="black", fontname=helvetica] ;
edge [fontname=helvetica] ;
0 [label=<age &le; 28.5<br/>entropy = 0.81<br/>samples = 21113<br/>value = [5256, 15857]<br/>class = low>, fillcolor="#7bbdee"] ;
1 [label=<age &le; 23.5<br/>entropy = 0.262<br/>samples = 5602<br/>value = [249, 5353]<br/>class = low>, fillcolor="#42a2e6"] ;
0 -> 1 [labeldistance=2.5, labelangle=45, headlabel="True"] ;
2 [label=<hours_per_week &le; 39.5<br/>entropy = 0.05<br/>samples = 2847<br/>value = [16, 2831]<br/>class = low>, fillcolor="#3a9ee5"] ;
1 -> 2 ;
3 [label=<entropy = 0.0<br/>samples = 1564<br/>value = [0, 1564]<br/>class = low>, fillcolor="#399de5"] ;
2 -> 3 ;
4 [label=<age &le; 21.5<br/>entropy = 0.097<br/>samples = 1283<br/>value = [16, 1267]<br/>class = low>, fillcolor="#3c9ee5"] ;
2 -> 4 ;
5 [label=<education_degree &le; 4.5<br/>entropy = 0.029<br/>samples = 669<br/>value = [2, 667]<br/>class = low>, fillcolor="#3a9de5"] ;
4 -> 5 ;
6 [label=<hours_per_week &le; 57.5<br/>entropy = 0.235<br/>samples = 26<br/>value = [1, 25]<br/>class = low>, fillcolor="#41a1e6"] ;
5 -> 6 ;
7 [label=<entropy = 0.0<br/>samples = 23<br/>value = [0, 23]<br/>class = low>, fillcolor="#399de5"] ;
6 -> 7 ;
8 [label=<hours_per_week &le; 70.0<br/>entropy = 0.918<br/>samples = 3<br/>value = [1, 2]<br/>class = low>, fillcolor="#9ccef2"] ;
6 -> 8 ;
9 [label=<age &le; 19.5<br/>entropy = 1.0<br/>samples = 2<br/>value = [1, 1]<br/>class = high>, fillcolor="#ffffff"] ;
8 -> 9 ;
10 [label=<entropy = 0.0<br/>samples = 1<br/>value = [1, 0]<br/>class = high>, fillcolor="#e58139"] ;
9 -> 10 ;
11 [label=<entropy = 0.0<br/>samples = 1<br/>value = [0, 1]<br/>class = low>, fillcolor="#399de5"] ;
9 -> 11 ;
12 [label=<entropy = 0.0<br/>samples = 1<br/>value = [0, 1]<br/>class = low>, fillcolor="#399de5"] ;
8 -> 12 ;
13 [label=<age &le; 20.5<br/>entropy = 0.017<br/>samples = 643<br/>value = [1, 642]<br/>class = low>, fillcolor="#399de5"] ;
5 -> 13 ;
14 [label=<entropy = 0.0<br/>samples = 422<br/>value = [0, 422]<br/>class = low>, fillcolor="#399de5"] ;
13 -> 14 ;
15 [label=<education_degree &le; 9.5<br/>entropy = 0.042<br/>samples = 221<br/>value = [1, 220]<br/>class = low>, fillcolor="#3a9de5"] ;
13 -> 15 ;
16 [label=<hours_per_week &le; 41.0<br/>entropy = 0.072<br/>samples = 116<br/>value = [1, 115]<br/>class = low>, fillcolor="#3b9ee5"] ;
15 -> 16 ;
17 [label=<education_degree &le; 8.5<br/>entropy = 0.086<br/>samples = 93<br/>value = [1, 92]<br/>class = low>, fillcolor="#3b9ee5"] ;
16 -> 17 ;
18 [label=<entropy = 0.0<br/>samples = 15<br/>value = [0, 15]<br/>class = low>, fillcolor="#399de5"] ;
17 -> 18 ;
19 [label=<entropy = 0.099<br/>samples = 78<br/>value = [1, 77]<br/>class = low>, fillcolor="#3c9ee5"] ;
17 -> 19 ;
20 [label=<entropy = 0.0<br/>samples = 23<br/>value = [0, 23]<br/>class = low>, fillcolor="#399de5"] ;
16 -> 20 ;
21 [label=<entropy = 0.0<br/>samples = 105<br/>value = [0, 105]<br/>class = low>, fillcolor="#399de5"] ;
15 -> 21 ;
22 [label=<hours_per_week &le; 49.0<br/>entropy = 0.157<br/>samples = 614<br/>value = [14, 600]<br/>class = low>, fillcolor="#3e9fe6"] ;
4 -> 22 ;
23 [label=<education_degree &le; 3.5<br/>entropy = 0.116<br/>samples = 511<br/>value = [8, 503]<br/>class = low>, fillcolor="#3c9fe5"] ;
22 -> 23 ;
24 [label=<age &le; 22.5<br/>entropy = 0.439<br/>samples = 11<br/>value = [1, 10]<br/>class = low>, fillcolor="#4da7e8"] ;
23 -> 24 ;
25 [label=<hours_per_week &le; 44.0<br/>entropy = 0.592<br/>samples = 7<br/>value = [1, 6]<br/>class = low>, fillcolor="#5aade9"] ;
24 -> 25 ;
26 [label=<entropy = 0.65<br/>samples = 6<br/>value = [1, 5]<br/>class = low>, fillcolor="#61b1ea"] ;
25 -> 26 ;
27 [label=<entropy = 0.0<br/>samples = 1<br/>value = [0, 1]<br/>class = low>, fillcolor="#399de5"] ;
25 -> 27 ;
28 [label=<entropy = 0.0<br/>samples = 4<br/>value = [0, 4]<br/>class = low>, fillcolor="#399de5"] ;
24 -> 28 ;
29 [label=<hours_per_week &le; 41.0<br/>entropy = 0.106<br/>samples = 500<br/>value = [7, 493]<br/>class = low>, fillcolor="#3c9ee5"] ;
23 -> 29 ;
30 [label=<education_degree &le; 8.5<br/>entropy = 0.116<br/>samples = 449<br/>value = [7, 442]<br/>class = low>, fillcolor="#3c9fe5"] ;
29 -> 30 ;
31 [label=<entropy = 0.0<br/>samples = 42<br/>value = [0, 42]<br/>class = low>, fillcolor="#399de5"] ;
30 -> 31 ;
32 [label=<education_degree &le; 12.5<br/>entropy = 0.125<br/>samples = 407<br/>value = [7, 400]<br/>class = low>, fillcolor="#3c9fe5"] ;
30 -> 32 ;
33 [label=<education_degree &le; 10.5<br/>entropy = 0.112<br/>samples = 336<br/>value = [5, 331]<br/>class = low>, fillcolor="#3c9ee5"] ;
32 -> 33 ;
34 [label=<education_degree &le; 9.5<br/>entropy = 0.12<br/>samples = 306<br/>value = [5, 301]<br/>class = low>, fillcolor="#3c9fe5"] ;
33 -> 34 ;
35 [label=<age &le; 22.5<br/>entropy = 0.092<br/>samples = 170<br/>value = [2, 168]<br/>class = low>, fillcolor="#3b9ee5"] ;
34 -> 35 ;
36 [label=<entropy = 0.1<br/>samples = 77<br/>value = [1, 76]<br/>class = low>, fillcolor="#3c9ee5"] ;
35 -> 36 ;
37 [label=<entropy = 0.086<br/>samples = 93<br/>value = [1, 92]<br/>class = low>, fillcolor="#3b9ee5"] ;
35 -> 37 ;
38 [label=<age &le; 22.5<br/>entropy = 0.153<br/>samples = 136<br/>value = [3, 133]<br/>class = low>, fillcolor="#3d9fe6"] ;
34 -> 38 ;
39 [label=<entropy = 0.122<br/>samples = 60<br/>value = [1, 59]<br/>class = low>, fillcolor="#3c9fe5"] ;
38 -> 39 ;
40 [label=<entropy = 0.176<br/>samples = 76<br/>value = [2, 74]<br/>class = low>, fillcolor="#3ea0e6"] ;
38 -> 40 ;
41 [label=<entropy = 0.0<br/>samples = 30<br/>value = [0, 30]<br/>class = low>, fillcolor="#399de5"] ;
33 -> 41 ;
42 [label=<age &le; 22.5<br/>entropy = 0.185<br/>samples = 71<br/>value = [2, 69]<br/>class = low>, fillcolor="#3fa0e6"] ;
32 -> 42 ;
43 [label=<entropy = 0.286<br/>samples = 20<br/>value = [1, 19]<br/>class = low>, fillcolor="#43a2e6"] ;
42 -> 43 ;
44 [label=<education_degree &le; 13.5<br/>entropy = 0.139<br/>samples = 51<br/>value = [1, 50]<br/>class = low>, fillcolor="#3d9fe6"] ;
42 -> 44 ;
45 [label=<entropy = 0.141<br/>samples = 50<br/>value = [1, 49]<br/>class = low>, fillcolor="#3d9fe6"] ;
44 -> 45 ;
46 [label=<entropy = 0.0<br/>samples = 1<br/>value = [0, 1]<br/>class = low>, fillcolor="#399de5"] ;
44 -> 46 ;
47 [label=<entropy = 0.0<br/>samples = 51<br/>value = [0, 51]<br/>class = low>, fillcolor="#399de5"] ;
29 -> 47 ;
48 [label=<education_degree &le; 13.5<br/>entropy = 0.32<br/>samples = 103<br/>value = [6, 97]<br/>class = low>, fillcolor="#45a3e7"] ;
22 -> 48 ;
49 [label=<education_degree &le; 9.5<br/>entropy = 0.282<br/>samples = 102<br/>value = [5, 97]<br/>class = low>, fillcolor="#43a2e6"] ;
48 -> 49 ;
50 [label=<education_degree &le; 8.5<br/>entropy = 0.135<br/>samples = 53<br/>value = [1, 52]<br/>class = low>, fillcolor="#3d9fe6"] ;
49 -> 50 ;
51 [label=<education_degree &le; 7.5<br/>entropy = 0.353<br/>samples = 15<br/>value = [1, 14]<br/>class = low>, fillcolor="#47a4e7"] ;
50 -> 51 ;
52 [label=<entropy = 0.0<br/>samples = 12<br/>value = [0, 12]<br/>class = low>, fillcolor="#399de5"] ;
51 -> 52 ;
53 [label=<age &le; 22.5<br/>entropy = 0.918<br/>samples = 3<br/>value = [1, 2]<br/>class = low>, fillcolor="#9ccef2"] ;
51 -> 53 ;
54 [label=<entropy = 1.0<br/>samples = 2<br/>value = [1, 1]<br/>class = high>, fillcolor="#ffffff"] ;
53 -> 54 ;
55 [label=<entropy = 0.0<br/>samples = 1<br/>value = [0, 1]<br/>class = low>, fillcolor="#399de5"] ;
53 -> 55 ;
56 [label=<entropy = 0.0<br/>samples = 38<br/>value = [0, 38]<br/>class = low>, fillcolor="#399de5"] ;
50 -> 56 ;
57 [label=<hours_per_week &le; 52.5<br/>entropy = 0.408<br/>samples = 49<br/>value = [4, 45]<br/>class = low>, fillcolor="#4ba6e7"] ;
49 -> 57 ;
58 [label=<entropy = 0.0<br/>samples = 22<br/>value = [0, 22]<br/>class = low>, fillcolor="#399de5"] ;
57 -> 58 ;
59 [label=<hours_per_week &le; 55.5<br/>entropy = 0.605<br/>samples = 27<br/>value = [4, 23]<br/>class = low>, fillcolor="#5baeea"] ;
57 -> 59 ;
60 [label=<education_degree &le; 11.5<br/>entropy = 0.954<br/>samples = 8<br/>value = [3, 5]<br/>class = low>, fillcolor="#b0d8f5"] ;
59 -> 60 ;
61 [label=<age &le; 22.5<br/>entropy = 0.918<br/>samples = 3<br/>value = [2, 1]<br/>class = high>, fillcolor="#f2c09c"] ;
60 -> 61 ;
62 [label=<entropy = 1.0<br/>samples = 2<br/>value = [1, 1]<br/>class = high>, fillcolor="#ffffff"] ;
61 -> 62 ;
63 [label=<entropy = 0.0<br/>samples = 1<br/>value = [1, 0]<br/>class = high>, fillcolor="#e58139"] ;
61 -> 63 ;
64 [label=<age &le; 22.5<br/>entropy = 0.722<br/>samples = 5<br/>value = [1, 4]<br/>class = low>, fillcolor="#6ab6ec"] ;
60 -> 64 ;
65 [label=<education_degree &le; 12.5<br/>entropy = 0.918<br/>samples = 3<br/>value = [1, 2]<br/>class = low>, fillcolor="#9ccef2"] ;
64 -> 65 ;
66 [label=<entropy = 0.0<br/>samples = 1<br/>value = [0, 1]<br/>class = low>, fillcolor="#399de5"] ;
65 -> 66 ;
67 [label=<entropy = 1.0<br/>samples = 2<br/>value = [1, 1]<br/>class = high>, fillcolor="#ffffff"] ;
65 -> 67 ;
68 [label=<entropy = 0.0<br/>samples = 2<br/>value = [0, 2]<br/>class = low>, fillcolor="#399de5"] ;
64 -> 68 ;
69 [label=<education_degree &le; 10.5<br/>entropy = 0.297<br/>samples = 19<br/>value = [1, 18]<br/>class = low>, fillcolor="#44a2e6"] ;
59 -> 69 ;
70 [label=<age &le; 22.5<br/>entropy = 0.592<br/>samples = 7<br/>value = [1, 6]<br/>class = low>, fillcolor="#5aade9"] ;
69 -> 70 ;
71 [label=<entropy = 0.0<br/>samples = 3<br/>value = [0, 3]<br/>class = low>, fillcolor="#399de5"] ;
70 -> 71 ;
72 [label=<hours_per_week &le; 70.0<br/>entropy = 0.811<br/>samples = 4<br/>value = [1, 3]<br/>class = low>, fillcolor="#7bbeee"] ;
70 -> 72 ;
73 [label=<entropy = 0.918<br/>samples = 3<br/>value = [1, 2]<br/>class = low>, fillcolor="#9ccef2"] ;
72 -> 73 ;
74 [label=<entropy = 0.0<br/>samples = 1<br/>value = [0, 1]<br/>class = low>, fillcolor="#399de5"] ;
72 -> 74 ;
75 [label=<entropy = 0.0<br/>samples = 12<br/>value = [0, 12]<br/>class = low>, fillcolor="#399de5"] ;
69 -> 75 ;
76 [label=<entropy = 0.0<br/>samples = 1<br/>value = [1, 0]<br/>class = high>, fillcolor="#e58139"] ;
48 -> 76 ;
77 [label=<hours_per_week &le; 41.5<br/>entropy = 0.418<br/>samples = 2755<br/>value = [233, 2522]<br/>class = low>, fillcolor="#4ba6e7"] ;
1 -> 77 ;
78 [label=<education_degree &le; 9.5<br/>entropy = 0.312<br/>samples = 2014<br/>value = [113, 1901]<br/>class = low>, fillcolor="#45a3e7"] ;
77 -> 78 ;
79 [label=<hours_per_week &le; 39.5<br/>entropy = 0.174<br/>samples = 881<br/>value = [23, 858]<br/>class = low>, fillcolor="#3ea0e6"] ;
78 -> 79 ;
80 [label=<entropy = 0.0<br/>samples = 200<br/>value = [0, 200]<br/>class = low>, fillcolor="#399de5"] ;
79 -> 80 ;
81 [label=<education_degree &le; 6.5<br/>entropy = 0.213<br/>samples = 681<br/>value = [23, 658]<br/>class = low>, fillcolor="#40a0e6"] ;
79 -> 81 ;
82 [label=<entropy = 0.0<br/>samples = 96<br/>value = [0, 96]<br/>class = low>, fillcolor="#399de5"] ;
81 -> 82 ;
83 [label=<age &le; 24.5<br/>entropy = 0.239<br/>samples = 585<br/>value = [23, 562]<br/>class = low>, fillcolor="#41a1e6"] ;
81 -> 83 ;
84 [label=<education_degree &le; 8.5<br/>entropy = 0.078<br/>samples = 105<br/>value = [1, 104]<br/>class = low>, fillcolor="#3b9ee5"] ;
83 -> 84 ;
85 [label=<entropy = 0.0<br/>samples = 15<br/>value = [0, 15]<br/>class = low>, fillcolor="#399de5"] ;
84 -> 85 ;
86 [label=<entropy = 0.088<br/>samples = 90<br/>value = [1, 89]<br/>class = low>, fillcolor="#3b9ee5"] ;
84 -> 86 ;
87 [label=<age &le; 27.5<br/>entropy = 0.268<br/>samples = 480<br/>value = [22, 458]<br/>class = low>, fillcolor="#43a2e6"] ;
83 -> 87 ;
88 [label=<education_degree &le; 8.5<br/>entropy = 0.245<br/>samples = 345<br/>value = [14, 331]<br/>class = low>, fillcolor="#41a1e6"] ;
87 -> 88 ;
89 [label=<age &le; 26.5<br/>entropy = 0.384<br/>samples = 40<br/>value = [3, 37]<br/>class = low>, fillcolor="#49a5e7"] ;
88 -> 89 ;
90 [label=<education_degree &le; 7.5<br/>entropy = 0.459<br/>samples = 31<br/>value = [3, 28]<br/>class = low>, fillcolor="#4ea8e8"] ;
89 -> 90 ;
91 [label=<age &le; 25.5<br/>entropy = 0.439<br/>samples = 22<br/>value = [2, 20]<br/>class = low>, fillcolor="#4da7e8"] ;
90 -> 91 ;
92 [label=<entropy = 0.414<br/>samples = 12<br/>value = [1, 11]<br/>class = low>, fillcolor="#4ba6e7"] ;
91 -> 92 ;
93 [label=<entropy = 0.469<br/>samples = 10<br/>value = [1, 9]<br/>class = low>, fillcolor="#4fa8e8"] ;
91 -> 93 ;
94 [label=<age &le; 25.5<br/>entropy = 0.503<br/>samples = 9<br/>value = [1, 8]<br/>class = low>, fillcolor="#52a9e8"] ;
90 -> 94 ;
95 [label=<entropy = 0.544<br/>samples = 8<br/>value = [1, 7]<br/>class = low>, fillcolor="#55abe9"] ;
94 -> 95 ;
96 [label=<entropy = 0.0<br/>samples = 1<br/>value = [0, 1]<br/>class = low>, fillcolor="#399de5"] ;
94 -> 96 ;
97 [label=<entropy = 0.0<br/>samples = 9<br/>value = [0, 9]<br/>class = low>, fillcolor="#399de5"] ;
89 -> 97 ;
98 [label=<age &le; 25.5<br/>entropy = 0.224<br/>samples = 305<br/>value = [11, 294]<br/>class = low>, fillcolor="#40a1e6"] ;
88 -> 98 ;
99 [label=<entropy = 0.139<br/>samples = 102<br/>value = [2, 100]<br/>class = low>, fillcolor="#3d9fe6"] ;
98 -> 99 ;
100 [label=<age &le; 26.5<br/>entropy = 0.262<br/>samples = 203<br/>value = [9, 194]<br/>class = low>, fillcolor="#42a2e6"] ;
98 -> 100 ;
101 [label=<entropy = 0.286<br/>samples = 100<br/>value = [5, 95]<br/>class = low>, fillcolor="#43a2e6"] ;
100 -> 101 ;
102 [label=<entropy = 0.237<br/>samples = 103<br/>value = [4, 99]<br/>class = low>, fillcolor="#41a1e6"] ;
100 -> 102 ;
103 [label=<education_degree &le; 7.5<br/>entropy = 0.324<br/>samples = 135<br/>value = [8, 127]<br/>class = low>, fillcolor="#45a3e7"] ;
87 -> 103 ;
104 [label=<entropy = 0.371<br/>samples = 14<br/>value = [1, 13]<br/>class = low>, fillcolor="#48a5e7"] ;
103 -> 104 ;
105 [label=<education_degree &le; 8.5<br/>entropy = 0.319<br/>samples = 121<br/>value = [7, 114]<br/>class = low>, fillcolor="#45a3e7"] ;
103 -> 105 ;
106 [label=<entropy = 0.0<br/>samples = 4<br/>value = [0, 4]<br/>class = low>, fillcolor="#399de5"] ;
105 -> 106 ;
107 [label=<entropy = 0.327<br/>samples = 117<br/>value = [7, 110]<br/>class = low>, fillcolor="#46a3e7"] ;
105 -> 107 ;
108 [label=<age &le; 26.5<br/>entropy = 0.4<br/>samples = 1133<br/>value = [90, 1043]<br/>class = low>, fillcolor="#4aa5e7"] ;
78 -> 108 ;
109 [label=<hours_per_week &le; 28.0<br/>entropy = 0.307<br/>samples = 746<br/>value = [41, 705]<br/>class = low>, fillcolor="#45a3e7"] ;
108 -> 109 ;
110 [label=<entropy = 0.0<br/>samples = 121<br/>value = [0, 121]<br/>class = low>, fillcolor="#399de5"] ;
109 -> 110 ;
111 [label=<age &le; 24.5<br/>entropy = 0.349<br/>samples = 625<br/>value = [41, 584]<br/>class = low>, fillcolor="#47a4e7"] ;
109 -> 111 ;
112 [label=<education_degree &le; 13.5<br/>entropy = 0.212<br/>samples = 209<br/>value = [7, 202]<br/>class = low>, fillcolor="#40a0e6"] ;
111 -> 112 ;
113 [label=<hours_per_week &le; 31.0<br/>entropy = 0.191<br/>samples = 205<br/>value = [6, 199]<br/>class = low>, fillcolor="#3fa0e6"] ;
112 -> 113 ;
114 [label=<education_degree &le; 11.5<br/>entropy = 0.426<br/>samples = 23<br/>value = [2, 21]<br/>class = low>, fillcolor="#4ca6e7"] ;
113 -> 114 ;
115 [label=<education_degree &le; 10.5<br/>entropy = 0.684<br/>samples = 11<br/>value = [2, 9]<br/>class = low>, fillcolor="#65b3eb"] ;
114 -> 115 ;
116 [label=<entropy = 0.469<br/>samples = 10<br/>value = [1, 9]<br/>class = low>, fillcolor="#4fa8e8"] ;
115 -> 116 ;
117 [label=<entropy = 0.0<br/>samples = 1<br/>value = [1, 0]<br/>class = high>, fillcolor="#e58139"] ;
115 -> 117 ;
118 [label=<entropy = 0.0<br/>samples = 12<br/>value = [0, 12]<br/>class = low>, fillcolor="#399de5"] ;
114 -> 118 ;
119 [label=<hours_per_week &le; 39.5<br/>entropy = 0.152<br/>samples = 182<br/>value = [4, 178]<br/>class = low>, fillcolor="#3d9fe6"] ;
113 -> 119 ;
120 [label=<entropy = 0.0<br/>samples = 25<br/>value = [0, 25]<br/>class = low>, fillcolor="#399de5"] ;
119 -> 120 ;
121 [label=<education_degree &le; 12.5<br/>entropy = 0.171<br/>samples = 157<br/>value = [4, 153]<br/>class = low>, fillcolor="#3ea0e6"] ;
119 -> 121 ;
122 [label=<education_degree &le; 11.5<br/>entropy = 0.216<br/>samples = 87<br/>value = [3, 84]<br/>class = low>, fillcolor="#40a0e6"] ;
121 -> 122 ;
123 [label=<education_degree &le; 10.5<br/>entropy = 0.177<br/>samples = 75<br/>value = [2, 73]<br/>class = low>, fillcolor="#3ea0e6"] ;
122 -> 123 ;
124 [label=<entropy = 0.206<br/>samples = 62<br/>value = [2, 60]<br/>class = low>, fillcolor="#40a0e6"] ;
123 -> 124 ;
125 [label=<entropy = 0.0<br/>samples = 13<br/>value = [0, 13]<br/>class = low>, fillcolor="#399de5"] ;
123 -> 125 ;
126 [label=<entropy = 0.414<br/>samples = 12<br/>value = [1, 11]<br/>class = low>, fillcolor="#4ba6e7"] ;
122 -> 126 ;
127 [label=<entropy = 0.108<br/>samples = 70<br/>value = [1, 69]<br/>class = low>, fillcolor="#3c9ee5"] ;
121 -> 127 ;
128 [label=<hours_per_week &le; 37.5<br/>entropy = 0.811<br/>samples = 4<br/>value = [1, 3]<br/>class = low>, fillcolor="#7bbeee"] ;
112 -> 128 ;
129 [label=<entropy = 0.0<br/>samples = 1<br/>value = [1, 0]<br/>class = high>, fillcolor="#e58139"] ;
128 -> 129 ;
130 [label=<entropy = 0.0<br/>samples = 3<br/>value = [0, 3]<br/>class = low>, fillcolor="#399de5"] ;
128 -> 130 ;
131 [label=<hours_per_week &le; 34.5<br/>entropy = 0.408<br/>samples = 416<br/>value = [34, 382]<br/>class = low>, fillcolor="#4ba6e7"] ;
111 -> 131 ;
132 [label=<entropy = 0.0<br/>samples = 26<br/>value = [0, 26]<br/>class = low>, fillcolor="#399de5"] ;
131 -> 132 ;
133 [label=<education_degree &le; 14.5<br/>entropy = 0.427<br/>samples = 390<br/>value = [34, 356]<br/>class = low>, fillcolor="#4ca6e7"] ;
131 -> 133 ;
134 [label=<age &le; 25.5<br/>entropy = 0.419<br/>samples = 389<br/>value = [33, 356]<br/>class = low>, fillcolor="#4ba6e7"] ;
133 -> 134 ;
135 [label=<education_degree &le; 12.5<br/>entropy = 0.457<br/>samples = 208<br/>value = [20, 188]<br/>class = low>, fillcolor="#4ea7e8"] ;
134 -> 135 ;
136 [label=<hours_per_week &le; 37.5<br/>entropy = 0.568<br/>samples = 97<br/>value = [13, 84]<br/>class = low>, fillcolor="#58ace9"] ;
135 -> 136 ;
137 [label=<education_degree &le; 11.5<br/>entropy = 0.881<br/>samples = 10<br/>value = [3, 7]<br/>class = low>, fillcolor="#8ec7f0"] ;
136 -> 137 ;
138 [label=<hours_per_week &le; 35.5<br/>entropy = 0.544<br/>samples = 8<br/>value = [1, 7]<br/>class = low>, fillcolor="#55abe9"] ;
137 -> 138 ;
139 [label=<entropy = 0.0<br/>samples = 6<br/>value = [0, 6]<br/>class = low>, fillcolor="#399de5"] ;
138 -> 139 ;
140 [label=<education_degree &le; 10.5<br/>entropy = 1.0<br/>samples = 2<br/>value = [1, 1]<br/>class = high>, fillcolor="#ffffff"] ;
138 -> 140 ;
141 [label=<entropy = 0.0<br/>samples = 1<br/>value = [1, 0]<br/>class = high>, fillcolor="#e58139"] ;
140 -> 141 ;
142 [label=<entropy = 0.0<br/>samples = 1<br/>value = [0, 1]<br/>class = low>, fillcolor="#399de5"] ;
140 -> 142 ;
143 [label=<entropy = 0.0<br/>samples = 2<br/>value = [2, 0]<br/>class = high>, fillcolor="#e58139"] ;
137 -> 143 ;
144 [label=<education_degree &le; 11.5<br/>entropy = 0.515<br/>samples = 87<br/>value = [10, 77]<br/>class = low>, fillcolor="#53aae8"] ;
136 -> 144 ;
145 [label=<education_degree &le; 10.5<br/>entropy = 0.544<br/>samples = 80<br/>value = [10, 70]<br/>class = low>, fillcolor="#55abe9"] ;
144 -> 145 ;
146 [label=<hours_per_week &le; 39.0<br/>entropy = 0.478<br/>samples = 68<br/>value = [7, 61]<br/>class = low>, fillcolor="#50a8e8"] ;
145 -> 146 ;
147 [label=<entropy = 0.0<br/>samples = 2<br/>value = [0, 2]<br/>class = low>, fillcolor="#399de5"] ;
146 -> 147 ;
148 [label=<entropy = 0.488<br/>samples = 66<br/>value = [7, 59]<br/>class = low>, fillcolor="#50a9e8"] ;
146 -> 148 ;
149 [label=<hours_per_week &le; 40.5<br/>entropy = 0.811<br/>samples = 12<br/>value = [3, 9]<br/>class = low>, fillcolor="#7bbeee"] ;
145 -> 149 ;
150 [label=<entropy = 0.845<br/>samples = 11<br/>value = [3, 8]<br/>class = low>, fillcolor="#83c2ef"] ;
149 -> 150 ;
151 [label=<entropy = 0.0<br/>samples = 1<br/>value = [0, 1]<br/>class = low>, fillcolor="#399de5"] ;
149 -> 151 ;
152 [label=<entropy = 0.0<br/>samples = 7<br/>value = [0, 7]<br/>class = low>, fillcolor="#399de5"] ;
144 -> 152 ;
153 [label=<hours_per_week &le; 39.0<br/>entropy = 0.339<br/>samples = 111<br/>value = [7, 104]<br/>class = low>, fillcolor="#46a4e7"] ;
135 -> 153 ;
154 [label=<hours_per_week &le; 37.5<br/>entropy = 0.523<br/>samples = 17<br/>value = [2, 15]<br/>class = low>, fillcolor="#53aae8"] ;
153 -> 154 ;
155 [label=<education_degree &le; 13.5<br/>entropy = 0.353<br/>samples = 15<br/>value = [1, 14]<br/>class = low>, fillcolor="#47a4e7"] ;
154 -> 155 ;
156 [label=<entropy = 0.469<br/>samples = 10<br/>value = [1, 9]<br/>class = low>, fillcolor="#4fa8e8"] ;
155 -> 156 ;
157 [label=<entropy = 0.0<br/>samples = 5<br/>value = [0, 5]<br/>class = low>, fillcolor="#399de5"] ;
155 -> 157 ;
158 [label=<entropy = 1.0<br/>samples = 2<br/>value = [1, 1]<br/>class = high>, fillcolor="#ffffff"] ;
154 -> 158 ;
159 [label=<education_degree &le; 13.5<br/>entropy = 0.3<br/>samples = 94<br/>value = [5, 89]<br/>class = low>, fillcolor="#44a3e6"] ;
153 -> 159 ;
160 [label=<entropy = 0.271<br/>samples = 86<br/>value = [4, 82]<br/>class = low>, fillcolor="#43a2e6"] ;
159 -> 160 ;
161 [label=<entropy = 0.544<br/>samples = 8<br/>value = [1, 7]<br/>class = low>, fillcolor="#55abe9"] ;
159 -> 161 ;
162 [label=<hours_per_week &le; 39.0<br/>entropy = 0.373<br/>samples = 181<br/>value = [13, 168]<br/>class = low>, fillcolor="#48a5e7"] ;
134 -> 162 ;
163 [label=<entropy = 0.0<br/>samples = 26<br/>value = [0, 26]<br/>class = low>, fillcolor="#399de5"] ;
162 -> 163 ;
164 [label=<education_degree &le; 10.5<br/>entropy = 0.416<br/>samples = 155<br/>value = [13, 142]<br/>class = low>, fillcolor="#4ba6e7"] ;
162 -> 164 ;
165 [label=<entropy = 0.297<br/>samples = 57<br/>value = [3, 54]<br/>class = low>, fillcolor="#44a2e6"] ;
164 -> 165 ;
166 [label=<education_degree &le; 13.5<br/>entropy = 0.475<br/>samples = 98<br/>value = [10, 88]<br/>class = low>, fillcolor="#50a8e8"] ;
164 -> 166 ;
167 [label=<hours_per_week &le; 40.5<br/>entropy = 0.45<br/>samples = 85<br/>value = [8, 77]<br/>class = low>, fillcolor="#4ea7e8"] ;
166 -> 167 ;
168 [label=<education_degree &le; 11.5<br/>entropy = 0.454<br/>samples = 84<br/>value = [8, 76]<br/>class = low>, fillcolor="#4ea7e8"] ;
167 -> 168 ;
169 [label=<entropy = 0.592<br/>samples = 7<br/>value = [1, 6]<br/>class = low>, fillcolor="#5aade9"] ;
168 -> 169 ;
170 [label=<education_degree &le; 12.5<br/>entropy = 0.439<br/>samples = 77<br/>value = [7, 70]<br/>class = low>, fillcolor="#4da7e8"] ;
168 -> 170 ;
171 [label=<entropy = 0.414<br/>samples = 12<br/>value = [1, 11]<br/>class = low>, fillcolor="#4ba6e7"] ;
170 -> 171 ;
172 [label=<entropy = 0.444<br/>samples = 65<br/>value = [6, 59]<br/>class = low>, fillcolor="#4da7e8"] ;
170 -> 172 ;
173 [label=<entropy = 0.0<br/>samples = 1<br/>value = [0, 1]<br/>class = low>, fillcolor="#399de5"] ;
167 -> 173 ;
174 [label=<entropy = 0.619<br/>samples = 13<br/>value = [2, 11]<br/>class = low>, fillcolor="#5dafea"] ;
166 -> 174 ;
175 [label=<entropy = 0.0<br/>samples = 1<br/>value = [1, 0]<br/>class = high>, fillcolor="#e58139"] ;
133 -> 175 ;
176 [label=<age &le; 27.5<br/>entropy = 0.548<br/>samples = 387<br/>value = [49, 338]<br/>class = low>, fillcolor="#56abe9"] ;
108 -> 176 ;
177 [label=<hours_per_week &le; 35.5<br/>entropy = 0.453<br/>samples = 200<br/>value = [19, 181]<br/>class = low>, fillcolor="#4ea7e8"] ;
176 -> 177 ;
178 [label=<entropy = 0.0<br/>samples = 40<br/>value = [0, 40]<br/>class = low>, fillcolor="#399de5"] ;
177 -> 178 ;
179 [label=<education_degree &le; 12.5<br/>entropy = 0.526<br/>samples = 160<br/>value = [19, 141]<br/>class = low>, fillcolor="#54aae9"] ;
177 -> 179 ;
180 [label=<hours_per_week &le; 37.0<br/>entropy = 0.439<br/>samples = 88<br/>value = [8, 80]<br/>class = low>, fillcolor="#4da7e8"] ;
179 -> 180 ;
181 [label=<entropy = 1.0<br/>samples = 2<br/>value = [1, 1]<br/>class = high>, fillcolor="#ffffff"] ;
180 -> 181 ;
182 [label=<education_degree &le; 10.5<br/>entropy = 0.407<br/>samples = 86<br/>value = [7, 79]<br/>class = low>, fillcolor="#4ba6e7"] ;
180 -> 182 ;
183 [label=<hours_per_week &le; 39.5<br/>entropy = 0.503<br/>samples = 54<br/>value = [6, 48]<br/>class = low>, fillcolor="#52a9e8"] ;
182 -> 183 ;
184 [label=<entropy = 0.0<br/>samples = 2<br/>value = [0, 2]<br/>class = low>, fillcolor="#399de5"] ;
183 -> 184 ;
185 [label=<entropy = 0.516<br/>samples = 52<br/>value = [6, 46]<br/>class = low>, fillcolor="#53aae8"] ;
183 -> 185 ;
186 [label=<education_degree &le; 11.5<br/>entropy = 0.201<br/>samples = 32<br/>value = [1, 31]<br/>class = low>, fillcolor="#3fa0e6"] ;
182 -> 186 ;
187 [label=<entropy = 0.0<br/>samples = 18<br/>value = [0, 18]<br/>class = low>, fillcolor="#399de5"] ;
186 -> 187 ;
188 [label=<hours_per_week &le; 39.0<br/>entropy = 0.371<br/>samples = 14<br/>value = [1, 13]<br/>class = low>, fillcolor="#48a5e7"] ;
186 -> 188 ;
189 [label=<entropy = 0.0<br/>samples = 1<br/>value = [0, 1]<br/>class = low>, fillcolor="#399de5"] ;
188 -> 189 ;
190 [label=<entropy = 0.391<br/>samples = 13<br/>value = [1, 12]<br/>class = low>, fillcolor="#49a5e7"] ;
188 -> 190 ;
191 [label=<hours_per_week &le; 39.0<br/>entropy = 0.617<br/>samples = 72<br/>value = [11, 61]<br/>class = low>, fillcolor="#5dafea"] ;
179 -> 191 ;
192 [label=<entropy = 0.0<br/>samples = 5<br/>value = [0, 5]<br/>class = low>, fillcolor="#399de5"] ;
191 -> 192 ;
193 [label=<education_degree &le; 14.5<br/>entropy = 0.644<br/>samples = 67<br/>value = [11, 56]<br/>class = low>, fillcolor="#60b0ea"] ;
191 -> 193 ;
194 [label=<education_degree &le; 13.5<br/>entropy = 0.656<br/>samples = 65<br/>value = [11, 54]<br/>class = low>, fillcolor="#61b1ea"] ;
193 -> 194 ;
195 [label=<entropy = 0.657<br/>samples = 59<br/>value = [10, 49]<br/>class = low>, fillcolor="#61b1ea"] ;
194 -> 195 ;
196 [label=<entropy = 0.65<br/>samples = 6<br/>value = [1, 5]<br/>class = low>, fillcolor="#61b1ea"] ;
194 -> 196 ;
197 [label=<entropy = 0.0<br/>samples = 2<br/>value = [0, 2]<br/>class = low>, fillcolor="#399de5"] ;
193 -> 197 ;
198 [label=<education_degree &le; 11.5<br/>entropy = 0.635<br/>samples = 187<br/>value = [30, 157]<br/>class = low>, fillcolor="#5fb0ea"] ;
176 -> 198 ;
199 [label=<hours_per_week &le; 27.5<br/>entropy = 0.517<br/>samples = 95<br/>value = [11, 84]<br/>class = low>, fillcolor="#53aae8"] ;
198 -> 199 ;
200 [label=<entropy = 0.0<br/>samples = 9<br/>value = [0, 9]<br/>class = low>, fillcolor="#399de5"] ;
199 -> 200 ;
201 [label=<hours_per_week &le; 33.5<br/>entropy = 0.552<br/>samples = 86<br/>value = [11, 75]<br/>class = low>, fillcolor="#56abe9"] ;
199 -> 201 ;
202 [label=<hours_per_week &le; 31.0<br/>entropy = 0.863<br/>samples = 7<br/>value = [2, 5]<br/>class = low>, fillcolor="#88c4ef"] ;
201 -> 202 ;
203 [label=<education_degree &le; 10.5<br/>entropy = 0.65<br/>samples = 6<br/>value = [1, 5]<br/>class = low>, fillcolor="#61b1ea"] ;
202 -> 203 ;
204 [label=<entropy = 0.722<br/>samples = 5<br/>value = [1, 4]<br/>class = low>, fillcolor="#6ab6ec"] ;
203 -> 204 ;
205 [label=<entropy = 0.0<br/>samples = 1<br/>value = [0, 1]<br/>class = low>, fillcolor="#399de5"] ;
203 -> 205 ;
206 [label=<entropy = 0.0<br/>samples = 1<br/>value = [1, 0]<br/>class = high>, fillcolor="#e58139"] ;
202 -> 206 ;
207 [label=<hours_per_week &le; 35.5<br/>entropy = 0.512<br/>samples = 79<br/>value = [9, 70]<br/>class = low>, fillcolor="#52aae8"] ;
201 -> 207 ;
208 [label=<entropy = 0.0<br/>samples = 4<br/>value = [0, 4]<br/>class = low>, fillcolor="#399de5"] ;
207 -> 208 ;
209 [label=<hours_per_week &le; 37.0<br/>entropy = 0.529<br/>samples = 75<br/>value = [9, 66]<br/>class = low>, fillcolor="#54aae9"] ;
207 -> 209 ;
210 [label=<entropy = 1.0<br/>samples = 2<br/>value = [1, 1]<br/>class = high>, fillcolor="#ffffff"] ;
209 -> 210 ;
211 [label=<hours_per_week &le; 39.0<br/>entropy = 0.499<br/>samples = 73<br/>value = [8, 65]<br/>class = low>, fillcolor="#51a9e8"] ;
209 -> 211 ;
212 [label=<entropy = 0.0<br/>samples = 2<br/>value = [0, 2]<br/>class = low>, fillcolor="#399de5"] ;
211 -> 212 ;
213 [label=<education_degree &le; 10.5<br/>entropy = 0.508<br/>samples = 71<br/>value = [8, 63]<br/>class = low>, fillcolor="#52a9e8"] ;
211 -> 213 ;
214 [label=<entropy = 0.531<br/>samples = 58<br/>value = [7, 51]<br/>class = low>, fillcolor="#54aae9"] ;
213 -> 214 ;
215 [label=<entropy = 0.391<br/>samples = 13<br/>value = [1, 12]<br/>class = low>, fillcolor="#49a5e7"] ;
213 -> 215 ;
216 [label=<education_degree &le; 14.5<br/>entropy = 0.735<br/>samples = 92<br/>value = [19, 73]<br/>class = low>, fillcolor="#6db7ec"] ;
198 -> 216 ;
217 [label=<education_degree &le; 13.5<br/>entropy = 0.762<br/>samples = 86<br/>value = [19, 67]<br/>class = low>, fillcolor="#71b9ec"] ;
216 -> 217 ;
218 [label=<hours_per_week &le; 15.5<br/>entropy = 0.694<br/>samples = 75<br/>value = [14, 61]<br/>class = low>, fillcolor="#66b3eb"] ;
217 -> 218 ;
219 [label=<entropy = 0.0<br/>samples = 3<br/>value = [0, 3]<br/>class = low>, fillcolor="#399de5"] ;
218 -> 219 ;
220 [label=<hours_per_week &le; 29.0<br/>entropy = 0.711<br/>samples = 72<br/>value = [14, 58]<br/>class = low>, fillcolor="#69b5eb"] ;
218 -> 220 ;
221 [label=<hours_per_week &le; 22.5<br/>entropy = 0.881<br/>samples = 10<br/>value = [3, 7]<br/>class = low>, fillcolor="#8ec7f0"] ;
220 -> 221 ;
222 [label=<education_degree &le; 12.5<br/>entropy = 0.544<br/>samples = 8<br/>value = [1, 7]<br/>class = low>, fillcolor="#55abe9"] ;
221 -> 222 ;
223 [label=<hours_per_week &le; 18.0<br/>entropy = 1.0<br/>samples = 2<br/>value = [1, 1]<br/>class = high>, fillcolor="#ffffff"] ;
222 -> 223 ;
224 [label=<entropy = 0.0<br/>samples = 1<br/>value = [1, 0]<br/>class = high>, fillcolor="#e58139"] ;
223 -> 224 ;
225 [label=<entropy = 0.0<br/>samples = 1<br/>value = [0, 1]<br/>class = low>, fillcolor="#399de5"] ;
223 -> 225 ;
226 [label=<entropy = 0.0<br/>samples = 6<br/>value = [0, 6]<br/>class = low>, fillcolor="#399de5"] ;
222 -> 226 ;
227 [label=<entropy = 0.0<br/>samples = 2<br/>value = [2, 0]<br/>class = high>, fillcolor="#e58139"] ;
221 -> 227 ;
228 [label=<hours_per_week &le; 37.5<br/>entropy = 0.674<br/>samples = 62<br/>value = [11, 51]<br/>class = low>, fillcolor="#64b2eb"] ;
220 -> 228 ;
229 [label=<entropy = 0.0<br/>samples = 5<br/>value = [0, 5]<br/>class = low>, fillcolor="#399de5"] ;
228 -> 229 ;
230 [label=<education_degree &le; 12.5<br/>entropy = 0.708<br/>samples = 57<br/>value = [11, 46]<br/>class = low>, fillcolor="#68b4eb"] ;
228 -> 230 ;
231 [label=<entropy = 0.619<br/>samples = 13<br/>value = [2, 11]<br/>class = low>, fillcolor="#5dafea"] ;
230 -> 231 ;
232 [label=<entropy = 0.731<br/>samples = 44<br/>value = [9, 35]<br/>class = low>, fillcolor="#6cb6ec"] ;
230 -> 232 ;
233 [label=<hours_per_week &le; 39.0<br/>entropy = 0.994<br/>samples = 11<br/>value = [5, 6]<br/>class = low>, fillcolor="#deeffb"] ;
217 -> 233 ;
234 [label=<hours_per_week &le; 34.0<br/>entropy = 0.918<br/>samples = 3<br/>value = [2, 1]<br/>class = high>, fillcolor="#f2c09c"] ;
233 -> 234 ;
235 [label=<entropy = 1.0<br/>samples = 2<br/>value = [1, 1]<br/>class = high>, fillcolor="#ffffff"] ;
234 -> 235 ;
236 [label=<entropy = 0.0<br/>samples = 1<br/>value = [1, 0]<br/>class = high>, fillcolor="#e58139"] ;
234 -> 236 ;
237 [label=<entropy = 0.954<br/>samples = 8<br/>value = [3, 5]<br/>class = low>, fillcolor="#b0d8f5"] ;
233 -> 237 ;
238 [label=<entropy = 0.0<br/>samples = 6<br/>value = [0, 6]<br/>class = low>, fillcolor="#399de5"] ;
216 -> 238 ;
239 [label=<education_degree &le; 12.5<br/>entropy = 0.639<br/>samples = 741<br/>value = [120, 621]<br/>class = low>, fillcolor="#5fb0ea"] ;
77 -> 239 ;
240 [label=<education_degree &le; 6.5<br/>entropy = 0.539<br/>samples = 503<br/>value = [62, 441]<br/>class = low>, fillcolor="#55abe9"] ;
239 -> 240 ;
241 [label=<entropy = 0.0<br/>samples = 35<br/>value = [0, 35]<br/>class = low>, fillcolor="#399de5"] ;
240 -> 241 ;
242 [label=<hours_per_week &le; 67.5<br/>entropy = 0.564<br/>samples = 468<br/>value = [62, 406]<br/>class = low>, fillcolor="#57ace9"] ;
240 -> 242 ;
243 [label=<hours_per_week &le; 55.5<br/>entropy = 0.533<br/>samples = 429<br/>value = [52, 377]<br/>class = low>, fillcolor="#54abe9"] ;
242 -> 243 ;
244 [label=<hours_per_week &le; 48.5<br/>entropy = 0.567<br/>samples = 345<br/>value = [46, 299]<br/>class = low>, fillcolor="#57ace9"] ;
243 -> 244 ;
245 [label=<hours_per_week &le; 45.5<br/>entropy = 0.491<br/>samples = 159<br/>value = [17, 142]<br/>class = low>, fillcolor="#51a9e8"] ;
244 -> 245 ;
246 [label=<hours_per_week &le; 42.5<br/>entropy = 0.558<br/>samples = 123<br/>value = [16, 107]<br/>class = low>, fillcolor="#57ace9"] ;
245 -> 246 ;
247 [label=<age &le; 24.5<br/>entropy = 0.75<br/>samples = 14<br/>value = [3, 11]<br/>class = low>, fillcolor="#6fb8ec"] ;
246 -> 247 ;
248 [label=<entropy = 0.0<br/>samples = 2<br/>value = [0, 2]<br/>class = low>, fillcolor="#399de5"] ;
247 -> 248 ;
249 [label=<education_degree &le; 8.0<br/>entropy = 0.811<br/>samples = 12<br/>value = [3, 9]<br/>class = low>, fillcolor="#7bbeee"] ;
247 -> 249 ;
250 [label=<entropy = 0.0<br/>samples = 1<br/>value = [0, 1]<br/>class = low>, fillcolor="#399de5"] ;
249 -> 250 ;
251 [label=<age &le; 26.5<br/>entropy = 0.845<br/>samples = 11<br/>value = [3, 8]<br/>class = low>, fillcolor="#83c2ef"] ;
249 -> 251 ;
252 [label=<education_degree &le; 10.5<br/>entropy = 0.65<br/>samples = 6<br/>value = [1, 5]<br/>class = low>, fillcolor="#61b1ea"] ;
251 -> 252 ;
253 [label=<entropy = 0.0<br/>samples = 5<br/>value = [0, 5]<br/>class = low>, fillcolor="#399de5"] ;
252 -> 253 ;
254 [label=<entropy = 0.0<br/>samples = 1<br/>value = [1, 0]<br/>class = high>, fillcolor="#e58139"] ;
252 -> 254 ;
255 [label=<education_degree &le; 10.5<br/>entropy = 0.971<br/>samples = 5<br/>value = [2, 3]<br/>class = low>, fillcolor="#bddef6"] ;
251 -> 255 ;
256 [label=<age &le; 27.5<br/>entropy = 0.918<br/>samples = 3<br/>value = [2, 1]<br/>class = high>, fillcolor="#f2c09c"] ;
255 -> 256 ;
257 [label=<entropy = 0.0<br/>samples = 1<br/>value = [1, 0]<br/>class = high>, fillcolor="#e58139"] ;
256 -> 257 ;
258 [label=<entropy = 1.0<br/>samples = 2<br/>value = [1, 1]<br/>class = high>, fillcolor="#ffffff"] ;
256 -> 258 ;
259 [label=<entropy = 0.0<br/>samples = 2<br/>value = [0, 2]<br/>class = low>, fillcolor="#399de5"] ;
255 -> 259 ;
260 [label=<hours_per_week &le; 43.5<br/>entropy = 0.527<br/>samples = 109<br/>value = [13, 96]<br/>class = low>, fillcolor="#54aae9"] ;
246 -> 260 ;
261 [label=<entropy = 0.0<br/>samples = 9<br/>value = [0, 9]<br/>class = low>, fillcolor="#399de5"] ;
260 -> 261 ;
262 [label=<hours_per_week &le; 44.5<br/>entropy = 0.557<br/>samples = 100<br/>value = [13, 87]<br/>class = low>, fillcolor="#57ace9"] ;
260 -> 262 ;
263 [label=<age &le; 24.5<br/>entropy = 0.811<br/>samples = 8<br/>value = [2, 6]<br/>class = low>, fillcolor="#7bbeee"] ;
262 -> 263 ;
264 [label=<entropy = 0.0<br/>samples = 3<br/>value = [0, 3]<br/>class = low>, fillcolor="#399de5"] ;
263 -> 264 ;
265 [label=<age &le; 25.5<br/>entropy = 0.971<br/>samples = 5<br/>value = [2, 3]<br/>class = low>, fillcolor="#bddef6"] ;
263 -> 265 ;
266 [label=<entropy = 0.0<br/>samples = 2<br/>value = [2, 0]<br/>class = high>, fillcolor="#e58139"] ;
265 -> 266 ;
267 [label=<entropy = 0.0<br/>samples = 3<br/>value = [0, 3]<br/>class = low>, fillcolor="#399de5"] ;
265 -> 267 ;
268 [label=<age &le; 25.5<br/>entropy = 0.528<br/>samples = 92<br/>value = [11, 81]<br/>class = low>, fillcolor="#54aae9"] ;
262 -> 268 ;
269 [label=<education_degree &le; 9.5<br/>entropy = 0.337<br/>samples = 32<br/>value = [2, 30]<br/>class = low>, fillcolor="#46a4e7"] ;
268 -> 269 ;
270 [label=<age &le; 24.5<br/>entropy = 0.619<br/>samples = 13<br/>value = [2, 11]<br/>class = low>, fillcolor="#5dafea"] ;
269 -> 270 ;
271 [label=<entropy = 0.764<br/>samples = 9<br/>value = [2, 7]<br/>class = low>, fillcolor="#72b9ec"] ;
270 -> 271 ;
272 [label=<entropy = 0.0<br/>samples = 4<br/>value = [0, 4]<br/>class = low>, fillcolor="#399de5"] ;
270 -> 272 ;
273 [label=<entropy = 0.0<br/>samples = 19<br/>value = [0, 19]<br/>class = low>, fillcolor="#399de5"] ;
269 -> 273 ;
274 [label=<education_degree &le; 11.5<br/>entropy = 0.61<br/>samples = 60<br/>value = [9, 51]<br/>class = low>, fillcolor="#5caeea"] ;
268 -> 274 ;
275 [label=<education_degree &le; 10.5<br/>entropy = 0.55<br/>samples = 55<br/>value = [7, 48]<br/>class = low>, fillcolor="#56abe9"] ;
274 -> 275 ;
276 [label=<education_degree &le; 8.5<br/>entropy = 0.57<br/>samples = 52<br/>value = [7, 45]<br/>class = low>, fillcolor="#58ace9"] ;
275 -> 276 ;
277 [label=<entropy = 0.0<br/>samples = 2<br/>value = [0, 2]<br/>class = low>, fillcolor="#399de5"] ;
276 -> 277 ;
278 [label=<age &le; 27.5<br/>entropy = 0.584<br/>samples = 50<br/>value = [7, 43]<br/>class = low>, fillcolor="#59ade9"] ;
276 -> 278 ;
279 [label=<education_degree &le; 9.5<br/>entropy = 0.533<br/>samples = 33<br/>value = [4, 29]<br/>class = low>, fillcolor="#54abe9"] ;
278 -> 279 ;
280 [label=<age &le; 26.5<br/>entropy = 0.469<br/>samples = 20<br/>value = [2, 18]<br/>class = low>, fillcolor="#4fa8e8"] ;
279 -> 280 ;
281 [label=<entropy = 0.0<br/>samples = 10<br/>value = [0, 10]<br/>class = low>, fillcolor="#399de5"] ;
280 -> 281 ;
282 [label=<entropy = 0.722<br/>samples = 10<br/>value = [2, 8]<br/>class = low>, fillcolor="#6ab6ec"] ;
280 -> 282 ;
283 [label=<age &le; 26.5<br/>entropy = 0.619<br/>samples = 13<br/>value = [2, 11]<br/>class = low>, fillcolor="#5dafea"] ;
279 -> 283 ;
284 [label=<entropy = 0.971<br/>samples = 5<br/>value = [2, 3]<br/>class = low>, fillcolor="#bddef6"] ;
283 -> 284 ;
285 [label=<entropy = 0.0<br/>samples = 8<br/>value = [0, 8]<br/>class = low>, fillcolor="#399de5"] ;
283 -> 285 ;
286 [label=<education_degree &le; 9.5<br/>entropy = 0.672<br/>samples = 17<br/>value = [3, 14]<br/>class = low>, fillcolor="#63b2eb"] ;
278 -> 286 ;
287 [label=<entropy = 0.779<br/>samples = 13<br/>value = [3, 10]<br/>class = low>, fillcolor="#74baed"] ;
286 -> 287 ;
288 [label=<entropy = 0.0<br/>samples = 4<br/>value = [0, 4]<br/>class = low>, fillcolor="#399de5"] ;
286 -> 288 ;
289 [label=<entropy = 0.0<br/>samples = 3<br/>value = [0, 3]<br/>class = low>, fillcolor="#399de5"] ;
275 -> 289 ;
290 [label=<age &le; 27.5<br/>entropy = 0.971<br/>samples = 5<br/>value = [2, 3]<br/>class = low>, fillcolor="#bddef6"] ;
274 -> 290 ;
291 [label=<age &le; 26.5<br/>entropy = 1.0<br/>samples = 4<br/>value = [2, 2]<br/>class = high>, fillcolor="#ffffff"] ;
290 -> 291 ;
292 [label=<entropy = 0.918<br/>samples = 3<br/>value = [1, 2]<br/>class = low>, fillcolor="#9ccef2"] ;
291 -> 292 ;
293 [label=<entropy = 0.0<br/>samples = 1<br/>value = [1, 0]<br/>class = high>, fillcolor="#e58139"] ;
291 -> 293 ;
294 [label=<entropy = 0.0<br/>samples = 1<br/>value = [0, 1]<br/>class = low>, fillcolor="#399de5"] ;
290 -> 294 ;
295 [label=<age &le; 24.5<br/>entropy = 0.183<br/>samples = 36<br/>value = [1, 35]<br/>class = low>, fillcolor="#3fa0e6"] ;
245 -> 295 ;
296 [label=<education_degree &le; 9.5<br/>entropy = 0.592<br/>samples = 7<br/>value = [1, 6]<br/>class = low>, fillcolor="#5aade9"] ;
295 -> 296 ;
297 [label=<entropy = 0.0<br/>samples = 4<br/>value = [0, 4]<br/>class = low>, fillcolor="#399de5"] ;
296 -> 297 ;
298 [label=<education_degree &le; 11.0<br/>entropy = 0.918<br/>samples = 3<br/>value = [1, 2]<br/>class = low>, fillcolor="#9ccef2"] ;
296 -> 298 ;
299 [label=<entropy = 1.0<br/>samples = 2<br/>value = [1, 1]<br/>class = high>, fillcolor="#ffffff"] ;
298 -> 299 ;
300 [label=<entropy = 0.0<br/>samples = 1<br/>value = [0, 1]<br/>class = low>, fillcolor="#399de5"] ;
298 -> 300 ;
301 [label=<entropy = 0.0<br/>samples = 29<br/>value = [0, 29]<br/>class = low>, fillcolor="#399de5"] ;
295 -> 301 ;
302 [label=<hours_per_week &le; 49.5<br/>entropy = 0.624<br/>samples = 186<br/>value = [29, 157]<br/>class = low>, fillcolor="#5eafea"] ;
244 -> 302 ;
303 [label=<education_degree &le; 9.5<br/>entropy = 1.0<br/>samples = 2<br/>value = [1, 1]<br/>class = high>, fillcolor="#ffffff"] ;
302 -> 303 ;
304 [label=<entropy = 0.0<br/>samples = 1<br/>value = [1, 0]<br/>class = high>, fillcolor="#e58139"] ;
303 -> 304 ;
305 [label=<entropy = 0.0<br/>samples = 1<br/>value = [0, 1]<br/>class = low>, fillcolor="#399de5"] ;
303 -> 305 ;
306 [label=<age &le; 25.5<br/>entropy = 0.615<br/>samples = 184<br/>value = [28, 156]<br/>class = low>, fillcolor="#5dafea"] ;
302 -> 306 ;
307 [label=<hours_per_week &le; 51.0<br/>entropy = 0.493<br/>samples = 65<br/>value = [7, 58]<br/>class = low>, fillcolor="#51a9e8"] ;
306 -> 307 ;
308 [label=<education_degree &le; 8.0<br/>entropy = 0.57<br/>samples = 52<br/>value = [7, 45]<br/>class = low>, fillcolor="#58ace9"] ;
307 -> 308 ;
309 [label=<age &le; 24.5<br/>entropy = 1.0<br/>samples = 2<br/>value = [1, 1]<br/>class = high>, fillcolor="#ffffff"] ;
308 -> 309 ;
310 [label=<entropy = 0.0<br/>samples = 1<br/>value = [1, 0]<br/>class = high>, fillcolor="#e58139"] ;
309 -> 310 ;
311 [label=<entropy = 0.0<br/>samples = 1<br/>value = [0, 1]<br/>class = low>, fillcolor="#399de5"] ;
309 -> 311 ;
312 [label=<education_degree &le; 10.5<br/>entropy = 0.529<br/>samples = 50<br/>value = [6, 44]<br/>class = low>, fillcolor="#54aae9"] ;
308 -> 312 ;
313 [label=<age &le; 24.5<br/>entropy = 0.544<br/>samples = 48<br/>value = [6, 42]<br/>class = low>, fillcolor="#55abe9"] ;
312 -> 313 ;
314 [label=<education_degree &le; 9.5<br/>entropy = 0.48<br/>samples = 29<br/>value = [3, 26]<br/>class = low>, fillcolor="#50a8e8"] ;
313 -> 314 ;
315 [label=<entropy = 0.485<br/>samples = 19<br/>value = [2, 17]<br/>class = low>, fillcolor="#50a9e8"] ;
314 -> 315 ;
316 [label=<entropy = 0.469<br/>samples = 10<br/>value = [1, 9]<br/>class = low>, fillcolor="#4fa8e8"] ;
314 -> 316 ;
317 [label=<education_degree &le; 9.5<br/>entropy = 0.629<br/>samples = 19<br/>value = [3, 16]<br/>class = low>, fillcolor="#5eafea"] ;
313 -> 317 ;
318 [label=<entropy = 0.503<br/>samples = 9<br/>value = [1, 8]<br/>class = low>, fillcolor="#52a9e8"] ;
317 -> 318 ;
319 [label=<entropy = 0.722<br/>samples = 10<br/>value = [2, 8]<br/>class = low>, fillcolor="#6ab6ec"] ;
317 -> 319 ;
320 [label=<entropy = 0.0<br/>samples = 2<br/>value = [0, 2]<br/>class = low>, fillcolor="#399de5"] ;
312 -> 320 ;
321 [label=<entropy = 0.0<br/>samples = 13<br/>value = [0, 13]<br/>class = low>, fillcolor="#399de5"] ;
307 -> 321 ;
322 [label=<education_degree &le; 8.5<br/>entropy = 0.672<br/>samples = 119<br/>value = [21, 98]<br/>class = low>, fillcolor="#63b2eb"] ;
306 -> 322 ;
323 [label=<entropy = 0.0<br/>samples = 8<br/>value = [0, 8]<br/>class = low>, fillcolor="#399de5"] ;
322 -> 323 ;
324 [label=<education_degree &le; 9.5<br/>entropy = 0.7<br/>samples = 111<br/>value = [21, 90]<br/>class = low>, fillcolor="#67b4eb"] ;
322 -> 324 ;
325 [label=<hours_per_week &le; 52.5<br/>entropy = 0.592<br/>samples = 63<br/>value = [9, 54]<br/>class = low>, fillcolor="#5aade9"] ;
324 -> 325 ;
326 [label=<hours_per_week &le; 51.5<br/>entropy = 0.629<br/>samples = 57<br/>value = [9, 48]<br/>class = low>, fillcolor="#5eafea"] ;
325 -> 326 ;
327 [label=<age &le; 27.5<br/>entropy = 0.577<br/>samples = 51<br/>value = [7, 44]<br/>class = low>, fillcolor="#58ade9"] ;
326 -> 327 ;
328 [label=<age &le; 26.5<br/>entropy = 0.637<br/>samples = 31<br/>value = [5, 26]<br/>class = low>, fillcolor="#5fb0ea"] ;
327 -> 328 ;
329 [label=<entropy = 0.619<br/>samples = 13<br/>value = [2, 11]<br/>class = low>, fillcolor="#5dafea"] ;
328 -> 329 ;
330 [label=<entropy = 0.65<br/>samples = 18<br/>value = [3, 15]<br/>class = low>, fillcolor="#61b1ea"] ;
328 -> 330 ;
331 [label=<hours_per_week &le; 50.5<br/>entropy = 0.469<br/>samples = 20<br/>value = [2, 18]<br/>class = low>, fillcolor="#4fa8e8"] ;
327 -> 331 ;
332 [label=<entropy = 0.485<br/>samples = 19<br/>value = [2, 17]<br/>class = low>, fillcolor="#50a9e8"] ;
331 -> 332 ;
333 [label=<entropy = 0.0<br/>samples = 1<br/>value = [0, 1]<br/>class = low>, fillcolor="#399de5"] ;
331 -> 333 ;
334 [label=<age &le; 26.5<br/>entropy = 0.918<br/>samples = 6<br/>value = [2, 4]<br/>class = low>, fillcolor="#9ccef2"] ;
326 -> 334 ;
335 [label=<entropy = 1.0<br/>samples = 4<br/>value = [2, 2]<br/>class = high>, fillcolor="#ffffff"] ;
334 -> 335 ;
336 [label=<entropy = 0.0<br/>samples = 2<br/>value = [0, 2]<br/>class = low>, fillcolor="#399de5"] ;
334 -> 336 ;
337 [label=<entropy = 0.0<br/>samples = 6<br/>value = [0, 6]<br/>class = low>, fillcolor="#399de5"] ;
325 -> 337 ;
338 [label=<age &le; 27.5<br/>entropy = 0.811<br/>samples = 48<br/>value = [12, 36]<br/>class = low>, fillcolor="#7bbeee"] ;
324 -> 338 ;
339 [label=<education_degree &le; 10.5<br/>entropy = 0.738<br/>samples = 24<br/>value = [5, 19]<br/>class = low>, fillcolor="#6db7ec"] ;
338 -> 339 ;
340 [label=<hours_per_week &le; 52.5<br/>entropy = 0.811<br/>samples = 20<br/>value = [5, 15]<br/>class = low>, fillcolor="#7bbeee"] ;
339 -> 340 ;
341 [label=<age &le; 26.5<br/>entropy = 0.696<br/>samples = 16<br/>value = [3, 13]<br/>class = low>, fillcolor="#67b4eb"] ;
340 -> 341 ;
342 [label=<entropy = 0.0<br/>samples = 4<br/>value = [0, 4]<br/>class = low>, fillcolor="#399de5"] ;
341 -> 342 ;
343 [label=<entropy = 0.811<br/>samples = 12<br/>value = [3, 9]<br/>class = low>, fillcolor="#7bbeee"] ;
341 -> 343 ;
344 [label=<age &le; 26.5<br/>entropy = 1.0<br/>samples = 4<br/>value = [2, 2]<br/>class = high>, fillcolor="#ffffff"] ;
340 -> 344 ;
345 [label=<entropy = 0.918<br/>samples = 3<br/>value = [2, 1]<br/>class = high>, fillcolor="#f2c09c"] ;
344 -> 345 ;
346 [label=<entropy = 0.0<br/>samples = 1<br/>value = [0, 1]<br/>class = low>, fillcolor="#399de5"] ;
344 -> 346 ;
347 [label=<entropy = 0.0<br/>samples = 4<br/>value = [0, 4]<br/>class = low>, fillcolor="#399de5"] ;
339 -> 347 ;
348 [label=<education_degree &le; 10.5<br/>entropy = 0.871<br/>samples = 24<br/>value = [7, 17]<br/>class = low>, fillcolor="#8bc5f0"] ;
338 -> 348 ;
349 [label=<hours_per_week &le; 52.0<br/>entropy = 0.773<br/>samples = 22<br/>value = [5, 17]<br/>class = low>, fillcolor="#73baed"] ;
348 -> 349 ;
350 [label=<entropy = 0.811<br/>samples = 16<br/>value = [4, 12]<br/>class = low>, fillcolor="#7bbeee"] ;
349 -> 350 ;
351 [label=<hours_per_week &le; 54.5<br/>entropy = 0.65<br/>samples = 6<br/>value = [1, 5]<br/>class = low>, fillcolor="#61b1ea"] ;
349 -> 351 ;
352 [label=<entropy = 0.0<br/>samples = 1<br/>value = [0, 1]<br/>class = low>, fillcolor="#399de5"] ;
351 -> 352 ;
353 [label=<entropy = 0.722<br/>samples = 5<br/>value = [1, 4]<br/>class = low>, fillcolor="#6ab6ec"] ;
351 -> 353 ;
354 [label=<entropy = 0.0<br/>samples = 2<br/>value = [2, 0]<br/>class = high>, fillcolor="#e58139"] ;
348 -> 354 ;
355 [label=<education_degree &le; 9.5<br/>entropy = 0.371<br/>samples = 84<br/>value = [6, 78]<br/>class = low>, fillcolor="#48a5e7"] ;
243 -> 355 ;
356 [label=<age &le; 27.5<br/>entropy = 0.535<br/>samples = 41<br/>value = [5, 36]<br/>class = low>, fillcolor="#54abe9"] ;
355 -> 356 ;
357 [label=<education_degree &le; 8.5<br/>entropy = 0.592<br/>samples = 35<br/>value = [5, 30]<br/>class = low>, fillcolor="#5aade9"] ;
356 -> 357 ;
358 [label=<entropy = 0.0<br/>samples = 4<br/>value = [0, 4]<br/>class = low>, fillcolor="#399de5"] ;
357 -> 358 ;
359 [label=<hours_per_week &le; 58.0<br/>entropy = 0.637<br/>samples = 31<br/>value = [5, 26]<br/>class = low>, fillcolor="#5fb0ea"] ;
357 -> 359 ;
360 [label=<entropy = 0.0<br/>samples = 1<br/>value = [0, 1]<br/>class = low>, fillcolor="#399de5"] ;
359 -> 360 ;
361 [label=<age &le; 25.5<br/>entropy = 0.65<br/>samples = 30<br/>value = [5, 25]<br/>class = low>, fillcolor="#61b1ea"] ;
359 -> 361 ;
362 [label=<hours_per_week &le; 62.5<br/>entropy = 0.764<br/>samples = 9<br/>value = [2, 7]<br/>class = low>, fillcolor="#72b9ec"] ;
361 -> 362 ;
363 [label=<age &le; 24.5<br/>entropy = 0.811<br/>samples = 8<br/>value = [2, 6]<br/>class = low>, fillcolor="#7bbeee"] ;
362 -> 363 ;
364 [label=<entropy = 0.811<br/>samples = 4<br/>value = [1, 3]<br/>class = low>, fillcolor="#7bbeee"] ;
363 -> 364 ;
365 [label=<entropy = 0.811<br/>samples = 4<br/>value = [1, 3]<br/>class = low>, fillcolor="#7bbeee"] ;
363 -> 365 ;
366 [label=<entropy = 0.0<br/>samples = 1<br/>value = [0, 1]<br/>class = low>, fillcolor="#399de5"] ;
362 -> 366 ;
367 [label=<hours_per_week &le; 64.5<br/>entropy = 0.592<br/>samples = 21<br/>value = [3, 18]<br/>class = low>, fillcolor="#5aade9"] ;
361 -> 367 ;
368 [label=<hours_per_week &le; 61.0<br/>entropy = 0.503<br/>samples = 18<br/>value = [2, 16]<br/>class = low>, fillcolor="#52a9e8"] ;
367 -> 368 ;
369 [label=<age &le; 26.5<br/>entropy = 0.544<br/>samples = 16<br/>value = [2, 14]<br/>class = low>, fillcolor="#55abe9"] ;
368 -> 369 ;
370 [label=<entropy = 0.503<br/>samples = 9<br/>value = [1, 8]<br/>class = low>, fillcolor="#52a9e8"] ;
369 -> 370 ;
371 [label=<entropy = 0.592<br/>samples = 7<br/>value = [1, 6]<br/>class = low>, fillcolor="#5aade9"] ;
369 -> 371 ;
372 [label=<entropy = 0.0<br/>samples = 2<br/>value = [0, 2]<br/>class = low>, fillcolor="#399de5"] ;
368 -> 372 ;
373 [label=<age &le; 26.5<br/>entropy = 0.918<br/>samples = 3<br/>value = [1, 2]<br/>class = low>, fillcolor="#9ccef2"] ;
367 -> 373 ;
374 [label=<entropy = 0.0<br/>samples = 2<br/>value = [0, 2]<br/>class = low>, fillcolor="#399de5"] ;
373 -> 374 ;
375 [label=<entropy = 0.0<br/>samples = 1<br/>value = [1, 0]<br/>class = high>, fillcolor="#e58139"] ;
373 -> 375 ;
376 [label=<entropy = 0.0<br/>samples = 6<br/>value = [0, 6]<br/>class = low>, fillcolor="#399de5"] ;
356 -> 376 ;
377 [label=<hours_per_week &le; 64.0<br/>entropy = 0.159<br/>samples = 43<br/>value = [1, 42]<br/>class = low>, fillcolor="#3e9fe6"] ;
355 -> 377 ;
378 [label=<entropy = 0.0<br/>samples = 34<br/>value = [0, 34]<br/>class = low>, fillcolor="#399de5"] ;
377 -> 378 ;
379 [label=<education_degree &le; 10.5<br/>entropy = 0.503<br/>samples = 9<br/>value = [1, 8]<br/>class = low>, fillcolor="#52a9e8"] ;
377 -> 379 ;
380 [label=<entropy = 0.0<br/>samples = 5<br/>value = [0, 5]<br/>class = low>, fillcolor="#399de5"] ;
379 -> 380 ;
381 [label=<age &le; 27.0<br/>entropy = 0.811<br/>samples = 4<br/>value = [1, 3]<br/>class = low>, fillcolor="#7bbeee"] ;
379 -> 381 ;
382 [label=<entropy = 0.918<br/>samples = 3<br/>value = [1, 2]<br/>class = low>, fillcolor="#9ccef2"] ;
381 -> 382 ;
383 [label=<entropy = 0.0<br/>samples = 1<br/>value = [0, 1]<br/>class = low>, fillcolor="#399de5"] ;
381 -> 383 ;
384 [label=<hours_per_week &le; 86.0<br/>entropy = 0.821<br/>samples = 39<br/>value = [10, 29]<br/>class = low>, fillcolor="#7dbfee"] ;
242 -> 384 ;
385 [label=<age &le; 24.5<br/>entropy = 0.885<br/>samples = 33<br/>value = [10, 23]<br/>class = low>, fillcolor="#8fc8f0"] ;
384 -> 385 ;
386 [label=<hours_per_week &le; 73.5<br/>entropy = 0.918<br/>samples = 3<br/>value = [2, 1]<br/>class = high>, fillcolor="#f2c09c"] ;
385 -> 386 ;
387 [label=<entropy = 0.0<br/>samples = 2<br/>value = [2, 0]<br/>class = high>, fillcolor="#e58139"] ;
386 -> 387 ;
388 [label=<entropy = 0.0<br/>samples = 1<br/>value = [0, 1]<br/>class = low>, fillcolor="#399de5"] ;
386 -> 388 ;
389 [label=<education_degree &le; 11.5<br/>entropy = 0.837<br/>samples = 30<br/>value = [8, 22]<br/>class = low>, fillcolor="#81c1ee"] ;
385 -> 389 ;
390 [label=<education_degree &le; 9.5<br/>entropy = 0.764<br/>samples = 27<br/>value = [6, 21]<br/>class = low>, fillcolor="#72b9ec"] ;
389 -> 390 ;
391 [label=<hours_per_week &le; 76.5<br/>entropy = 0.937<br/>samples = 17<br/>value = [6, 11]<br/>class = low>, fillcolor="#a5d2f3"] ;
390 -> 391 ;
392 [label=<age &le; 27.5<br/>entropy = 0.503<br/>samples = 9<br/>value = [1, 8]<br/>class = low>, fillcolor="#52a9e8"] ;
391 -> 392 ;
393 [label=<entropy = 0.0<br/>samples = 6<br/>value = [0, 6]<br/>class = low>, fillcolor="#399de5"] ;
392 -> 393 ;
394 [label=<entropy = 0.918<br/>samples = 3<br/>value = [1, 2]<br/>class = low>, fillcolor="#9ccef2"] ;
392 -> 394 ;
395 [label=<age &le; 25.5<br/>entropy = 0.954<br/>samples = 8<br/>value = [5, 3]<br/>class = high>, fillcolor="#f5cdb0"] ;
391 -> 395 ;
396 [label=<hours_per_week &le; 79.0<br/>entropy = 1.0<br/>samples = 4<br/>value = [2, 2]<br/>class = high>, fillcolor="#ffffff"] ;
395 -> 396 ;
397 [label=<entropy = 0.0<br/>samples = 1<br/>value = [0, 1]<br/>class = low>, fillcolor="#399de5"] ;
396 -> 397 ;
398 [label=<hours_per_week &le; 82.0<br/>entropy = 0.918<br/>samples = 3<br/>value = [2, 1]<br/>class = high>, fillcolor="#f2c09c"] ;
396 -> 398 ;
399 [label=<entropy = 0.0<br/>samples = 1<br/>value = [1, 0]<br/>class = high>, fillcolor="#e58139"] ;
398 -> 399 ;
400 [label=<entropy = 1.0<br/>samples = 2<br/>value = [1, 1]<br/>class = high>, fillcolor="#ffffff"] ;
398 -> 400 ;
401 [label=<hours_per_week &le; 79.0<br/>entropy = 0.811<br/>samples = 4<br/>value = [3, 1]<br/>class = high>, fillcolor="#eeab7b"] ;
395 -> 401 ;
402 [label=<entropy = 0.0<br/>samples = 1<br/>value = [1, 0]<br/>class = high>, fillcolor="#e58139"] ;
401 -> 402 ;
403 [label=<entropy = 0.918<br/>samples = 3<br/>value = [2, 1]<br/>class = high>, fillcolor="#f2c09c"] ;
401 -> 403 ;
404 [label=<entropy = 0.0<br/>samples = 10<br/>value = [0, 10]<br/>class = low>, fillcolor="#399de5"] ;
390 -> 404 ;
405 [label=<hours_per_week &le; 74.0<br/>entropy = 0.918<br/>samples = 3<br/>value = [2, 1]<br/>class = high>, fillcolor="#f2c09c"] ;
389 -> 405 ;
406 [label=<entropy = 0.0<br/>samples = 2<br/>value = [2, 0]<br/>class = high>, fillcolor="#e58139"] ;
405 -> 406 ;
407 [label=<entropy = 0.0<br/>samples = 1<br/>value = [0, 1]<br/>class = low>, fillcolor="#399de5"] ;
405 -> 407 ;
408 [label=<entropy = 0.0<br/>samples = 6<br/>value = [0, 6]<br/>class = low>, fillcolor="#399de5"] ;
384 -> 408 ;
409 [label=<age &le; 24.5<br/>entropy = 0.801<br/>samples = 238<br/>value = [58, 180]<br/>class = low>, fillcolor="#79bded"] ;
239 -> 409 ;
410 [label=<hours_per_week &le; 46.0<br/>entropy = 0.31<br/>samples = 36<br/>value = [2, 34]<br/>class = low>, fillcolor="#45a3e7"] ;
409 -> 410 ;
411 [label=<hours_per_week &le; 44.5<br/>entropy = 0.619<br/>samples = 13<br/>value = [2, 11]<br/>class = low>, fillcolor="#5dafea"] ;
410 -> 411 ;
412 [label=<hours_per_week &le; 43.0<br/>entropy = 0.918<br/>samples = 3<br/>value = [1, 2]<br/>class = low>, fillcolor="#9ccef2"] ;
411 -> 412 ;
413 [label=<entropy = 0.0<br/>samples = 1<br/>value = [0, 1]<br/>class = low>, fillcolor="#399de5"] ;
412 -> 413 ;
414 [label=<entropy = 1.0<br/>samples = 2<br/>value = [1, 1]<br/>class = high>, fillcolor="#ffffff"] ;
412 -> 414 ;
415 [label=<entropy = 0.469<br/>samples = 10<br/>value = [1, 9]<br/>class = low>, fillcolor="#4fa8e8"] ;
411 -> 415 ;
416 [label=<entropy = 0.0<br/>samples = 23<br/>value = [0, 23]<br/>class = low>, fillcolor="#399de5"] ;
410 -> 416 ;
417 [label=<age &le; 27.5<br/>entropy = 0.852<br/>samples = 202<br/>value = [56, 146]<br/>class = low>, fillcolor="#85c3ef"] ;
409 -> 417 ;
418 [label=<hours_per_week &le; 47.0<br/>entropy = 0.767<br/>samples = 134<br/>value = [30, 104]<br/>class = low>, fillcolor="#72b9ec"] ;
417 -> 418 ;
419 [label=<hours_per_week &le; 42.5<br/>entropy = 0.926<br/>samples = 44<br/>value = [15, 29]<br/>class = low>, fillcolor="#9fd0f2"] ;
418 -> 419 ;
420 [label=<age &le; 26.5<br/>entropy = 0.971<br/>samples = 5<br/>value = [3, 2]<br/>class = high>, fillcolor="#f6d5bd"] ;
419 -> 420 ;
421 [label=<entropy = 0.918<br/>samples = 3<br/>value = [1, 2]<br/>class = low>, fillcolor="#9ccef2"] ;
420 -> 421 ;
422 [label=<entropy = 0.0<br/>samples = 2<br/>value = [2, 0]<br/>class = high>, fillcolor="#e58139"] ;
420 -> 422 ;
423 [label=<hours_per_week &le; 44.5<br/>entropy = 0.89<br/>samples = 39<br/>value = [12, 27]<br/>class = low>, fillcolor="#91c9f1"] ;
419 -> 423 ;
424 [label=<entropy = 0.0<br/>samples = 7<br/>value = [0, 7]<br/>class = low>, fillcolor="#399de5"] ;
423 -> 424 ;
425 [label=<age &le; 25.5<br/>entropy = 0.954<br/>samples = 32<br/>value = [12, 20]<br/>class = low>, fillcolor="#b0d8f5"] ;
423 -> 425 ;
426 [label=<entropy = 0.918<br/>samples = 3<br/>value = [2, 1]<br/>class = high>, fillcolor="#f2c09c"] ;
425 -> 426 ;
427 [label=<education_degree &le; 14.5<br/>entropy = 0.929<br/>samples = 29<br/>value = [10, 19]<br/>class = low>, fillcolor="#a1d1f3"] ;
425 -> 427 ;
428 [label=<education_degree &le; 13.5<br/>entropy = 0.94<br/>samples = 28<br/>value = [10, 18]<br/>class = low>, fillcolor="#a7d3f3"] ;
427 -> 428 ;
429 [label=<hours_per_week &le; 45.5<br/>entropy = 0.954<br/>samples = 24<br/>value = [9, 15]<br/>class = low>, fillcolor="#b0d8f5"] ;
428 -> 429 ;
430 [label=<age &le; 26.5<br/>entropy = 0.932<br/>samples = 23<br/>value = [8, 15]<br/>class = low>, fillcolor="#a3d1f3"] ;
429 -> 430 ;
431 [label=<entropy = 0.971<br/>samples = 10<br/>value = [4, 6]<br/>class = low>, fillcolor="#bddef6"] ;
430 -> 431 ;
432 [label=<entropy = 0.89<br/>samples = 13<br/>value = [4, 9]<br/>class = low>, fillcolor="#91c9f1"] ;
430 -> 432 ;
433 [label=<entropy = 0.0<br/>samples = 1<br/>value = [1, 0]<br/>class = high>, fillcolor="#e58139"] ;
429 -> 433 ;
434 [label=<hours_per_week &le; 45.5<br/>entropy = 0.811<br/>samples = 4<br/>value = [1, 3]<br/>class = low>, fillcolor="#7bbeee"] ;
428 -> 434 ;
435 [label=<entropy = 0.918<br/>samples = 3<br/>value = [1, 2]<br/>class = low>, fillcolor="#9ccef2"] ;
434 -> 435 ;
436 [label=<entropy = 0.0<br/>samples = 1<br/>value = [0, 1]<br/>class = low>, fillcolor="#399de5"] ;
434 -> 436 ;
437 [label=<entropy = 0.0<br/>samples = 1<br/>value = [0, 1]<br/>class = low>, fillcolor="#399de5"] ;
427 -> 437 ;
438 [label=<hours_per_week &le; 89.5<br/>entropy = 0.65<br/>samples = 90<br/>value = [15, 75]<br/>class = low>, fillcolor="#61b1ea"] ;
418 -> 438 ;
439 [label=<hours_per_week &le; 53.5<br/>entropy = 0.628<br/>samples = 89<br/>value = [14, 75]<br/>class = low>, fillcolor="#5eafea"] ;
438 -> 439 ;
440 [label=<age &le; 26.5<br/>entropy = 0.475<br/>samples = 49<br/>value = [5, 44]<br/>class = low>, fillcolor="#50a8e8"] ;
439 -> 440 ;
441 [label=<education_degree &le; 13.5<br/>entropy = 0.619<br/>samples = 26<br/>value = [4, 22]<br/>class = low>, fillcolor="#5dafea"] ;
440 -> 441 ;
442 [label=<age &le; 25.5<br/>entropy = 0.667<br/>samples = 23<br/>value = [4, 19]<br/>class = low>, fillcolor="#63b2ea"] ;
441 -> 442 ;
443 [label=<hours_per_week &le; 49.0<br/>entropy = 0.469<br/>samples = 10<br/>value = [1, 9]<br/>class = low>, fillcolor="#4fa8e8"] ;
442 -> 443 ;
444 [label=<entropy = 0.0<br/>samples = 1<br/>value = [0, 1]<br/>class = low>, fillcolor="#399de5"] ;
443 -> 444 ;
445 [label=<entropy = 0.503<br/>samples = 9<br/>value = [1, 8]<br/>class = low>, fillcolor="#52a9e8"] ;
443 -> 445 ;
446 [label=<hours_per_week &le; 49.0<br/>entropy = 0.779<br/>samples = 13<br/>value = [3, 10]<br/>class = low>, fillcolor="#74baed"] ;
442 -> 446 ;
447 [label=<entropy = 1.0<br/>samples = 2<br/>value = [1, 1]<br/>class = high>, fillcolor="#ffffff"] ;
446 -> 447 ;
448 [label=<entropy = 0.684<br/>samples = 11<br/>value = [2, 9]<br/>class = low>, fillcolor="#65b3eb"] ;
446 -> 448 ;
449 [label=<entropy = 0.0<br/>samples = 3<br/>value = [0, 3]<br/>class = low>, fillcolor="#399de5"] ;
441 -> 449 ;
450 [label=<education_degree &le; 13.5<br/>entropy = 0.258<br/>samples = 23<br/>value = [1, 22]<br/>class = low>, fillcolor="#42a1e6"] ;
440 -> 450 ;
451 [label=<hours_per_week &le; 49.0<br/>entropy = 0.286<br/>samples = 20<br/>value = [1, 19]<br/>class = low>, fillcolor="#43a2e6"] ;
450 -> 451 ;
452 [label=<entropy = 0.0<br/>samples = 3<br/>value = [0, 3]<br/>class = low>, fillcolor="#399de5"] ;
451 -> 452 ;
453 [label=<hours_per_week &le; 51.0<br/>entropy = 0.323<br/>samples = 17<br/>value = [1, 16]<br/>class = low>, fillcolor="#45a3e7"] ;
451 -> 453 ;
454 [label=<entropy = 0.337<br/>samples = 16<br/>value = [1, 15]<br/>class = low>, fillcolor="#46a4e7"] ;
453 -> 454 ;
455 [label=<entropy = 0.0<br/>samples = 1<br/>value = [0, 1]<br/>class = low>, fillcolor="#399de5"] ;
453 -> 455 ;
456 [label=<entropy = 0.0<br/>samples = 3<br/>value = [0, 3]<br/>class = low>, fillcolor="#399de5"] ;
450 -> 456 ;
457 [label=<hours_per_week &le; 62.5<br/>entropy = 0.769<br/>samples = 40<br/>value = [9, 31]<br/>class = low>, fillcolor="#72b9ed"] ;
439 -> 457 ;
458 [label=<age &le; 26.5<br/>entropy = 0.863<br/>samples = 28<br/>value = [8, 20]<br/>class = low>, fillcolor="#88c4ef"] ;
457 -> 458 ;
459 [label=<hours_per_week &le; 56.5<br/>entropy = 0.792<br/>samples = 21<br/>value = [5, 16]<br/>class = low>, fillcolor="#77bced"] ;
458 -> 459 ;
460 [label=<age &le; 25.5<br/>entropy = 0.503<br/>samples = 9<br/>value = [1, 8]<br/>class = low>, fillcolor="#52a9e8"] ;
459 -> 460 ;
461 [label=<education_degree &le; 13.5<br/>entropy = 0.811<br/>samples = 4<br/>value = [1, 3]<br/>class = low>, fillcolor="#7bbeee"] ;
460 -> 461 ;
462 [label=<entropy = 0.918<br/>samples = 3<br/>value = [1, 2]<br/>class = low>, fillcolor="#9ccef2"] ;
461 -> 462 ;
463 [label=<entropy = 0.0<br/>samples = 1<br/>value = [0, 1]<br/>class = low>, fillcolor="#399de5"] ;
461 -> 463 ;
464 [label=<entropy = 0.0<br/>samples = 5<br/>value = [0, 5]<br/>class = low>, fillcolor="#399de5"] ;
460 -> 464 ;
465 [label=<hours_per_week &le; 59.0<br/>entropy = 0.918<br/>samples = 12<br/>value = [4, 8]<br/>class = low>, fillcolor="#9ccef2"] ;
459 -> 465 ;
466 [label=<entropy = 0.0<br/>samples = 1<br/>value = [1, 0]<br/>class = high>, fillcolor="#e58139"] ;
465 -> 466 ;
467 [label=<education_degree &le; 14.5<br/>entropy = 0.845<br/>samples = 11<br/>value = [3, 8]<br/>class = low>, fillcolor="#83c2ef"] ;
465 -> 467 ;
468 [label=<education_degree &le; 13.5<br/>entropy = 0.764<br/>samples = 9<br/>value = [2, 7]<br/>class = low>, fillcolor="#72b9ec"] ;
467 -> 468 ;
469 [label=<age &le; 25.5<br/>entropy = 0.811<br/>samples = 8<br/>value = [2, 6]<br/>class = low>, fillcolor="#7bbeee"] ;
468 -> 469 ;
470 [label=<entropy = 0.863<br/>samples = 7<br/>value = [2, 5]<br/>class = low>, fillcolor="#88c4ef"] ;
469 -> 470 ;
471 [label=<entropy = 0.0<br/>samples = 1<br/>value = [0, 1]<br/>class = low>, fillcolor="#399de5"] ;
469 -> 471 ;
472 [label=<entropy = 0.0<br/>samples = 1<br/>value = [0, 1]<br/>class = low>, fillcolor="#399de5"] ;
468 -> 472 ;
473 [label=<entropy = 1.0<br/>samples = 2<br/>value = [1, 1]<br/>class = high>, fillcolor="#ffffff"] ;
467 -> 473 ;
474 [label=<education_degree &le; 13.5<br/>entropy = 0.985<br/>samples = 7<br/>value = [3, 4]<br/>class = low>, fillcolor="#cee6f8"] ;
458 -> 474 ;
475 [label=<hours_per_week &le; 57.5<br/>entropy = 1.0<br/>samples = 6<br/>value = [3, 3]<br/>class = high>, fillcolor="#ffffff"] ;
474 -> 475 ;
476 [label=<entropy = 0.918<br/>samples = 3<br/>value = [2, 1]<br/>class = high>, fillcolor="#f2c09c"] ;
475 -> 476 ;
477 [label=<entropy = 0.918<br/>samples = 3<br/>value = [1, 2]<br/>class = low>, fillcolor="#9ccef2"] ;
475 -> 477 ;
478 [label=<entropy = 0.0<br/>samples = 1<br/>value = [0, 1]<br/>class = low>, fillcolor="#399de5"] ;
474 -> 478 ;
479 [label=<hours_per_week &le; 78.5<br/>entropy = 0.414<br/>samples = 12<br/>value = [1, 11]<br/>class = low>, fillcolor="#4ba6e7"] ;
457 -> 479 ;
480 [label=<entropy = 0.0<br/>samples = 9<br/>value = [0, 9]<br/>class = low>, fillcolor="#399de5"] ;
479 -> 480 ;
481 [label=<age &le; 25.5<br/>entropy = 0.918<br/>samples = 3<br/>value = [1, 2]<br/>class = low>, fillcolor="#9ccef2"] ;
479 -> 481 ;
482 [label=<entropy = 0.0<br/>samples = 1<br/>value = [0, 1]<br/>class = low>, fillcolor="#399de5"] ;
481 -> 482 ;
483 [label=<entropy = 1.0<br/>samples = 2<br/>value = [1, 1]<br/>class = high>, fillcolor="#ffffff"] ;
481 -> 483 ;
484 [label=<entropy = 0.0<br/>samples = 1<br/>value = [1, 0]<br/>class = high>, fillcolor="#e58139"] ;
438 -> 484 ;
485 [label=<hours_per_week &le; 82.5<br/>entropy = 0.96<br/>samples = 68<br/>value = [26, 42]<br/>class = low>, fillcolor="#b4daf5"] ;
417 -> 485 ;
486 [label=<hours_per_week &le; 42.5<br/>entropy = 0.967<br/>samples = 66<br/>value = [26, 40]<br/>class = low>, fillcolor="#baddf6"] ;
485 -> 486 ;
487 [label=<entropy = 0.0<br/>samples = 1<br/>value = [1, 0]<br/>class = high>, fillcolor="#e58139"] ;
486 -> 487 ;
488 [label=<hours_per_week &le; 70.0<br/>entropy = 0.961<br/>samples = 65<br/>value = [25, 40]<br/>class = low>, fillcolor="#b5daf5"] ;
486 -> 488 ;
489 [label=<hours_per_week &le; 57.5<br/>entropy = 0.954<br/>samples = 64<br/>value = [24, 40]<br/>class = low>, fillcolor="#b0d8f5"] ;
488 -> 489 ;
490 [label=<hours_per_week &le; 51.0<br/>entropy = 0.931<br/>samples = 52<br/>value = [18, 34]<br/>class = low>, fillcolor="#a2d1f3"] ;
489 -> 490 ;
491 [label=<education_degree &le; 14.5<br/>entropy = 0.965<br/>samples = 41<br/>value = [16, 25]<br/>class = low>, fillcolor="#b8dcf6"] ;
490 -> 491 ;
492 [label=<hours_per_week &le; 44.0<br/>entropy = 0.977<br/>samples = 39<br/>value = [16, 23]<br/>class = low>, fillcolor="#c3e1f7"] ;
491 -> 492 ;
493 [label=<entropy = 0.0<br/>samples = 1<br/>value = [0, 1]<br/>class = low>, fillcolor="#399de5"] ;
492 -> 493 ;
494 [label=<hours_per_week &le; 47.0<br/>entropy = 0.982<br/>samples = 38<br/>value = [16, 22]<br/>class = low>, fillcolor="#c9e4f8"] ;
492 -> 494 ;
495 [label=<education_degree &le; 13.5<br/>entropy = 0.996<br/>samples = 13<br/>value = [6, 7]<br/>class = low>, fillcolor="#e3f1fb"] ;
494 -> 495 ;
496 [label=<hours_per_week &le; 45.5<br/>entropy = 0.946<br/>samples = 11<br/>value = [4, 7]<br/>class = low>, fillcolor="#aad5f4"] ;
495 -> 496 ;
497 [label=<entropy = 0.881<br/>samples = 10<br/>value = [3, 7]<br/>class = low>, fillcolor="#8ec7f0"] ;
496 -> 497 ;
498 [label=<entropy = 0.0<br/>samples = 1<br/>value = [1, 0]<br/>class = high>, fillcolor="#e58139"] ;
496 -> 498 ;
499 [label=<entropy = 0.0<br/>samples = 2<br/>value = [2, 0]<br/>class = high>, fillcolor="#e58139"] ;
495 -> 499 ;
500 [label=<education_degree &le; 13.5<br/>entropy = 0.971<br/>samples = 25<br/>value = [10, 15]<br/>class = low>, fillcolor="#bddef6"] ;
494 -> 500 ;
501 [label=<hours_per_week &le; 49.0<br/>entropy = 0.998<br/>samples = 19<br/>value = [9, 10]<br/>class = low>, fillcolor="#ebf5fc"] ;
500 -> 501 ;
502 [label=<entropy = 1.0<br/>samples = 2<br/>value = [1, 1]<br/>class = high>, fillcolor="#ffffff"] ;
501 -> 502 ;
503 [label=<entropy = 0.998<br/>samples = 17<br/>value = [8, 9]<br/>class = low>, fillcolor="#e9f4fc"] ;
501 -> 503 ;
504 [label=<hours_per_week &le; 49.0<br/>entropy = 0.65<br/>samples = 6<br/>value = [1, 5]<br/>class = low>, fillcolor="#61b1ea"] ;
500 -> 504 ;
505 [label=<entropy = 0.0<br/>samples = 1<br/>value = [0, 1]<br/>class = low>, fillcolor="#399de5"] ;
504 -> 505 ;
506 [label=<entropy = 0.722<br/>samples = 5<br/>value = [1, 4]<br/>class = low>, fillcolor="#6ab6ec"] ;
504 -> 506 ;
507 [label=<entropy = 0.0<br/>samples = 2<br/>value = [0, 2]<br/>class = low>, fillcolor="#399de5"] ;
491 -> 507 ;
508 [label=<education_degree &le; 14.5<br/>entropy = 0.684<br/>samples = 11<br/>value = [2, 9]<br/>class = low>, fillcolor="#65b3eb"] ;
490 -> 508 ;
509 [label=<education_degree &le; 13.5<br/>entropy = 0.503<br/>samples = 9<br/>value = [1, 8]<br/>class = low>, fillcolor="#52a9e8"] ;
508 -> 509 ;
510 [label=<hours_per_week &le; 53.5<br/>entropy = 0.544<br/>samples = 8<br/>value = [1, 7]<br/>class = low>, fillcolor="#55abe9"] ;
509 -> 510 ;
511 [label=<entropy = 0.0<br/>samples = 1<br/>value = [0, 1]<br/>class = low>, fillcolor="#399de5"] ;
510 -> 511 ;
512 [label=<entropy = 0.592<br/>samples = 7<br/>value = [1, 6]<br/>class = low>, fillcolor="#5aade9"] ;
510 -> 512 ;
513 [label=<entropy = 0.0<br/>samples = 1<br/>value = [0, 1]<br/>class = low>, fillcolor="#399de5"] ;
509 -> 513 ;
514 [label=<entropy = 1.0<br/>samples = 2<br/>value = [1, 1]<br/>class = high>, fillcolor="#ffffff"] ;
508 -> 514 ;
515 [label=<education_degree &le; 15.5<br/>entropy = 1.0<br/>samples = 12<br/>value = [6, 6]<br/>class = high>, fillcolor="#ffffff"] ;
489 -> 515 ;
516 [label=<education_degree &le; 13.5<br/>entropy = 0.994<br/>samples = 11<br/>value = [5, 6]<br/>class = low>, fillcolor="#deeffb"] ;
515 -> 516 ;
517 [label=<entropy = 0.991<br/>samples = 9<br/>value = [5, 4]<br/>class = high>, fillcolor="#fae6d7"] ;
516 -> 517 ;
518 [label=<entropy = 0.0<br/>samples = 2<br/>value = [0, 2]<br/>class = low>, fillcolor="#399de5"] ;
516 -> 518 ;
519 [label=<entropy = 0.0<br/>samples = 1<br/>value = [1, 0]<br/>class = high>, fillcolor="#e58139"] ;
515 -> 519 ;
520 [label=<entropy = 0.0<br/>samples = 1<br/>value = [1, 0]<br/>class = high>, fillcolor="#e58139"] ;
488 -> 520 ;
521 [label=<entropy = 0.0<br/>samples = 2<br/>value = [0, 2]<br/>class = low>, fillcolor="#399de5"] ;
485 -> 521 ;
522 [label=<education_degree &le; 12.5<br/>entropy = 0.907<br/>samples = 15511<br/>value = [5007, 10504]<br/>class = low>, fillcolor="#97ccf1"] ;
0 -> 522 [labeldistance=2.5, labelangle=-45, headlabel="False"] ;
523 [label=<education_degree &le; 8.5<br/>entropy = 0.768<br/>samples = 11154<br/>value = [2501, 8653]<br/>class = low>, fillcolor="#72b9ed"] ;
522 -> 523 ;
524 [label=<hours_per_week &le; 42.5<br/>entropy = 0.404<br/>samples = 1700<br/>value = [137, 1563]<br/>class = low>, fillcolor="#4aa6e7"] ;
523 -> 524 ;
525 [label=<hours_per_week &le; 21.5<br/>entropy = 0.328<br/>samples = 1328<br/>value = [80, 1248]<br/>class = low>, fillcolor="#46a3e7"] ;
524 -> 525 ;
526 [label=<age &le; 76.5<br/>entropy = 0.063<br/>samples = 135<br/>value = [1, 134]<br/>class = low>, fillcolor="#3a9ee5"] ;
525 -> 526 ;
527 [label=<entropy = 0.0<br/>samples = 128<br/>value = [0, 128]<br/>class = low>, fillcolor="#399de5"] ;
526 -> 527 ;
528 [label=<hours_per_week &le; 17.5<br/>entropy = 0.592<br/>samples = 7<br/>value = [1, 6]<br/>class = low>, fillcolor="#5aade9"] ;
526 -> 528 ;
529 [label=<entropy = 0.0<br/>samples = 6<br/>value = [0, 6]<br/>class = low>, fillcolor="#399de5"] ;
528 -> 529 ;
530 [label=<entropy = 0.0<br/>samples = 1<br/>value = [1, 0]<br/>class = high>, fillcolor="#e58139"] ;
528 -> 530 ;
531 [label=<age &le; 35.5<br/>entropy = 0.352<br/>samples = 1193<br/>value = [79, 1114]<br/>class = low>, fillcolor="#47a4e7"] ;
525 -> 531 ;
532 [label=<age &le; 33.5<br/>entropy = 0.163<br/>samples = 250<br/>value = [6, 244]<br/>class = low>, fillcolor="#3e9fe6"] ;
531 -> 532 ;
533 [label=<age &le; 30.5<br/>entropy = 0.203<br/>samples = 189<br/>value = [6, 183]<br/>class = low>, fillcolor="#3fa0e6"] ;
532 -> 533 ;
534 [label=<hours_per_week &le; 36.5<br/>entropy = 0.107<br/>samples = 71<br/>value = [1, 70]<br/>class = low>, fillcolor="#3c9ee5"] ;
533 -> 534 ;
535 [label=<hours_per_week &le; 32.5<br/>entropy = 0.65<br/>samples = 6<br/>value = [1, 5]<br/>class = low>, fillcolor="#61b1ea"] ;
534 -> 535 ;
536 [label=<entropy = 0.0<br/>samples = 4<br/>value = [0, 4]<br/>class = low>, fillcolor="#399de5"] ;
535 -> 536 ;
537 [label=<age &le; 29.5<br/>entropy = 1.0<br/>samples = 2<br/>value = [1, 1]<br/>class = high>, fillcolor="#ffffff"] ;
535 -> 537 ;
538 [label=<entropy = 0.0<br/>samples = 1<br/>value = [1, 0]<br/>class = high>, fillcolor="#e58139"] ;
537 -> 538 ;
539 [label=<entropy = 0.0<br/>samples = 1<br/>value = [0, 1]<br/>class = low>, fillcolor="#399de5"] ;
537 -> 539 ;
540 [label=<entropy = 0.0<br/>samples = 65<br/>value = [0, 65]<br/>class = low>, fillcolor="#399de5"] ;
534 -> 540 ;
541 [label=<hours_per_week &le; 39.0<br/>entropy = 0.253<br/>samples = 118<br/>value = [5, 113]<br/>class = low>, fillcolor="#42a1e6"] ;
533 -> 541 ;
542 [label=<entropy = 0.0<br/>samples = 19<br/>value = [0, 19]<br/>class = low>, fillcolor="#399de5"] ;
541 -> 542 ;
543 [label=<education_degree &le; 2.5<br/>entropy = 0.289<br/>samples = 99<br/>value = [5, 94]<br/>class = low>, fillcolor="#44a2e6"] ;
541 -> 543 ;
544 [label=<entropy = 0.0<br/>samples = 6<br/>value = [0, 6]<br/>class = low>, fillcolor="#399de5"] ;
543 -> 544 ;
545 [label=<education_degree &le; 4.5<br/>entropy = 0.302<br/>samples = 93<br/>value = [5, 88]<br/>class = low>, fillcolor="#44a3e6"] ;
543 -> 545 ;
546 [label=<age &le; 31.5<br/>entropy = 0.439<br/>samples = 22<br/>value = [2, 20]<br/>class = low>, fillcolor="#4da7e8"] ;
545 -> 546 ;
547 [label=<entropy = 0.0<br/>samples = 7<br/>value = [0, 7]<br/>class = low>, fillcolor="#399de5"] ;
546 -> 547 ;
548 [label=<education_degree &le; 3.5<br/>entropy = 0.567<br/>samples = 15<br/>value = [2, 13]<br/>class = low>, fillcolor="#57ace9"] ;
546 -> 548 ;
549 [label=<age &le; 32.5<br/>entropy = 0.503<br/>samples = 9<br/>value = [1, 8]<br/>class = low>, fillcolor="#52a9e8"] ;
548 -> 549 ;
550 [label=<entropy = 0.722<br/>samples = 5<br/>value = [1, 4]<br/>class = low>, fillcolor="#6ab6ec"] ;
549 -> 550 ;
551 [label=<entropy = 0.0<br/>samples = 4<br/>value = [0, 4]<br/>class = low>, fillcolor="#399de5"] ;
549 -> 551 ;
552 [label=<age &le; 32.5<br/>entropy = 0.65<br/>samples = 6<br/>value = [1, 5]<br/>class = low>, fillcolor="#61b1ea"] ;
548 -> 552 ;
553 [label=<entropy = 0.0<br/>samples = 2<br/>value = [0, 2]<br/>class = low>, fillcolor="#399de5"] ;
552 -> 553 ;
554 [label=<entropy = 0.811<br/>samples = 4<br/>value = [1, 3]<br/>class = low>, fillcolor="#7bbeee"] ;
552 -> 554 ;
555 [label=<education_degree &le; 5.5<br/>entropy = 0.253<br/>samples = 71<br/>value = [3, 68]<br/>class = low>, fillcolor="#42a1e6"] ;
545 -> 555 ;
556 [label=<entropy = 0.0<br/>samples = 11<br/>value = [0, 11]<br/>class = low>, fillcolor="#399de5"] ;
555 -> 556 ;
557 [label=<age &le; 31.5<br/>entropy = 0.286<br/>samples = 60<br/>value = [3, 57]<br/>class = low>, fillcolor="#43a2e6"] ;
555 -> 557 ;
558 [label=<education_degree &le; 7.5<br/>entropy = 0.414<br/>samples = 24<br/>value = [2, 22]<br/>class = low>, fillcolor="#4ba6e7"] ;
557 -> 558 ;
559 [label=<education_degree &le; 6.5<br/>entropy = 0.276<br/>samples = 21<br/>value = [1, 20]<br/>class = low>, fillcolor="#43a2e6"] ;
558 -> 559 ;
560 [label=<entropy = 0.371<br/>samples = 14<br/>value = [1, 13]<br/>class = low>, fillcolor="#48a5e7"] ;
559 -> 560 ;
561 [label=<entropy = 0.0<br/>samples = 7<br/>value = [0, 7]<br/>class = low>, fillcolor="#399de5"] ;
559 -> 561 ;
562 [label=<entropy = 0.918<br/>samples = 3<br/>value = [1, 2]<br/>class = low>, fillcolor="#9ccef2"] ;
558 -> 562 ;
563 [label=<age &le; 32.5<br/>entropy = 0.183<br/>samples = 36<br/>value = [1, 35]<br/>class = low>, fillcolor="#3fa0e6"] ;
557 -> 563 ;
564 [label=<entropy = 0.0<br/>samples = 20<br/>value = [0, 20]<br/>class = low>, fillcolor="#399de5"] ;
563 -> 564 ;
565 [label=<education_degree &le; 6.5<br/>entropy = 0.337<br/>samples = 16<br/>value = [1, 15]<br/>class = low>, fillcolor="#46a4e7"] ;
563 -> 565 ;
566 [label=<entropy = 0.0<br/>samples = 7<br/>value = [0, 7]<br/>class = low>, fillcolor="#399de5"] ;
565 -> 566 ;
567 [label=<education_degree &le; 7.5<br/>entropy = 0.503<br/>samples = 9<br/>value = [1, 8]<br/>class = low>, fillcolor="#52a9e8"] ;
565 -> 567 ;
568 [label=<entropy = 0.811<br/>samples = 4<br/>value = [1, 3]<br/>class = low>, fillcolor="#7bbeee"] ;
567 -> 568 ;
569 [label=<entropy = 0.0<br/>samples = 5<br/>value = [0, 5]<br/>class = low>, fillcolor="#399de5"] ;
567 -> 569 ;
570 [label=<entropy = 0.0<br/>samples = 61<br/>value = [0, 61]<br/>class = low>, fillcolor="#399de5"] ;
532 -> 570 ;
571 [label=<education_degree &le; 5.5<br/>entropy = 0.393<br/>samples = 943<br/>value = [73, 870]<br/>class = low>, fillcolor="#4aa5e7"] ;
531 -> 571 ;
572 [label=<age &le; 52.5<br/>entropy = 0.311<br/>samples = 483<br/>value = [27, 456]<br/>class = low>, fillcolor="#45a3e7"] ;
571 -> 572 ;
573 [label=<age &le; 48.5<br/>entropy = 0.222<br/>samples = 252<br/>value = [9, 243]<br/>class = low>, fillcolor="#40a1e6"] ;
572 -> 573 ;
574 [label=<age &le; 47.5<br/>entropy = 0.272<br/>samples = 193<br/>value = [9, 184]<br/>class = low>, fillcolor="#43a2e6"] ;
573 -> 574 ;
575 [label=<age &le; 45.5<br/>entropy = 0.234<br/>samples = 183<br/>value = [7, 176]<br/>class = low>, fillcolor="#41a1e6"] ;
574 -> 575 ;
576 [label=<age &le; 44.5<br/>entropy = 0.278<br/>samples = 146<br/>value = [7, 139]<br/>class = low>, fillcolor="#43a2e6"] ;
575 -> 576 ;
577 [label=<age &le; 41.5<br/>entropy = 0.235<br/>samples = 130<br/>value = [5, 125]<br/>class = low>, fillcolor="#41a1e6"] ;
576 -> 577 ;
578 [label=<age &le; 39.5<br/>entropy = 0.32<br/>samples = 86<br/>value = [5, 81]<br/>class = low>, fillcolor="#45a3e7"] ;
577 -> 578 ;
579 [label=<education_degree &le; 4.5<br/>entropy = 0.222<br/>samples = 56<br/>value = [2, 54]<br/>class = low>, fillcolor="#40a1e6"] ;
578 -> 579 ;
580 [label=<education_degree &le; 2.5<br/>entropy = 0.337<br/>samples = 32<br/>value = [2, 30]<br/>class = low>, fillcolor="#46a4e7"] ;
579 -> 580 ;
581 [label=<entropy = 0.0<br/>samples = 6<br/>value = [0, 6]<br/>class = low>, fillcolor="#399de5"] ;
580 -> 581 ;
582 [label=<hours_per_week &le; 35.5<br/>entropy = 0.391<br/>samples = 26<br/>value = [2, 24]<br/>class = low>, fillcolor="#49a5e7"] ;
580 -> 582 ;
583 [label=<age &le; 37.5<br/>entropy = 0.592<br/>samples = 7<br/>value = [1, 6]<br/>class = low>, fillcolor="#5aade9"] ;
582 -> 583 ;
584 [label=<entropy = 0.0<br/>samples = 6<br/>value = [0, 6]<br/>class = low>, fillcolor="#399de5"] ;
583 -> 584 ;
585 [label=<entropy = 0.0<br/>samples = 1<br/>value = [1, 0]<br/>class = high>, fillcolor="#e58139"] ;
583 -> 585 ;
586 [label=<age &le; 36.5<br/>entropy = 0.297<br/>samples = 19<br/>value = [1, 18]<br/>class = low>, fillcolor="#44a2e6"] ;
582 -> 586 ;
587 [label=<education_degree &le; 3.5<br/>entropy = 0.592<br/>samples = 7<br/>value = [1, 6]<br/>class = low>, fillcolor="#5aade9"] ;
586 -> 587 ;
588 [label=<entropy = 0.811<br/>samples = 4<br/>value = [1, 3]<br/>class = low>, fillcolor="#7bbeee"] ;
587 -> 588 ;
589 [label=<entropy = 0.0<br/>samples = 3<br/>value = [0, 3]<br/>class = low>, fillcolor="#399de5"] ;
587 -> 589 ;
590 [label=<entropy = 0.0<br/>samples = 12<br/>value = [0, 12]<br/>class = low>, fillcolor="#399de5"] ;
586 -> 590 ;
591 [label=<entropy = 0.0<br/>samples = 24<br/>value = [0, 24]<br/>class = low>, fillcolor="#399de5"] ;
579 -> 591 ;
592 [label=<education_degree &le; 4.5<br/>entropy = 0.469<br/>samples = 30<br/>value = [3, 27]<br/>class = low>, fillcolor="#4fa8e8"] ;
578 -> 592 ;
593 [label=<education_degree &le; 2.5<br/>entropy = 0.267<br/>samples = 22<br/>value = [1, 21]<br/>class = low>, fillcolor="#42a2e6"] ;
592 -> 593 ;
594 [label=<education_degree &le; 1.5<br/>entropy = 0.65<br/>samples = 6<br/>value = [1, 5]<br/>class = low>, fillcolor="#61b1ea"] ;
593 -> 594 ;
595 [label=<entropy = 0.0<br/>samples = 1<br/>value = [0, 1]<br/>class = low>, fillcolor="#399de5"] ;
594 -> 595 ;
596 [label=<hours_per_week &le; 37.5<br/>entropy = 0.722<br/>samples = 5<br/>value = [1, 4]<br/>class = low>, fillcolor="#6ab6ec"] ;
594 -> 596 ;
597 [label=<entropy = 0.0<br/>samples = 1<br/>value = [0, 1]<br/>class = low>, fillcolor="#399de5"] ;
596 -> 597 ;
598 [label=<entropy = 0.811<br/>samples = 4<br/>value = [1, 3]<br/>class = low>, fillcolor="#7bbeee"] ;
596 -> 598 ;
599 [label=<entropy = 0.0<br/>samples = 16<br/>value = [0, 16]<br/>class = low>, fillcolor="#399de5"] ;
593 -> 599 ;
600 [label=<hours_per_week &le; 37.5<br/>entropy = 0.811<br/>samples = 8<br/>value = [2, 6]<br/>class = low>, fillcolor="#7bbeee"] ;
592 -> 600 ;
601 [label=<entropy = 0.0<br/>samples = 2<br/>value = [0, 2]<br/>class = low>, fillcolor="#399de5"] ;
600 -> 601 ;
602 [label=<entropy = 0.918<br/>samples = 6<br/>value = [2, 4]<br/>class = low>, fillcolor="#9ccef2"] ;
600 -> 602 ;
603 [label=<entropy = 0.0<br/>samples = 44<br/>value = [0, 44]<br/>class = low>, fillcolor="#399de5"] ;
577 -> 603 ;
604 [label=<education_degree &le; 4.5<br/>entropy = 0.544<br/>samples = 16<br/>value = [2, 14]<br/>class = low>, fillcolor="#55abe9"] ;
576 -> 604 ;
605 [label=<entropy = 0.0<br/>samples = 9<br/>value = [0, 9]<br/>class = low>, fillcolor="#399de5"] ;
604 -> 605 ;
606 [label=<entropy = 0.863<br/>samples = 7<br/>value = [2, 5]<br/>class = low>, fillcolor="#88c4ef"] ;
604 -> 606 ;
607 [label=<entropy = 0.0<br/>samples = 37<br/>value = [0, 37]<br/>class = low>, fillcolor="#399de5"] ;
575 -> 607 ;
608 [label=<education_degree &le; 4.5<br/>entropy = 0.722<br/>samples = 10<br/>value = [2, 8]<br/>class = low>, fillcolor="#6ab6ec"] ;
574 -> 608 ;
609 [label=<education_degree &le; 3.5<br/>entropy = 0.544<br/>samples = 8<br/>value = [1, 7]<br/>class = low>, fillcolor="#55abe9"] ;
608 -> 609 ;
610 [label=<entropy = 0.0<br/>samples = 2<br/>value = [0, 2]<br/>class = low>, fillcolor="#399de5"] ;
609 -> 610 ;
611 [label=<hours_per_week &le; 36.0<br/>entropy = 0.65<br/>samples = 6<br/>value = [1, 5]<br/>class = low>, fillcolor="#61b1ea"] ;
609 -> 611 ;
612 [label=<entropy = 0.0<br/>samples = 1<br/>value = [0, 1]<br/>class = low>, fillcolor="#399de5"] ;
611 -> 612 ;
613 [label=<entropy = 0.722<br/>samples = 5<br/>value = [1, 4]<br/>class = low>, fillcolor="#6ab6ec"] ;
611 -> 613 ;
614 [label=<entropy = 1.0<br/>samples = 2<br/>value = [1, 1]<br/>class = high>, fillcolor="#ffffff"] ;
608 -> 614 ;
615 [label=<entropy = 0.0<br/>samples = 59<br/>value = [0, 59]<br/>class = low>, fillcolor="#399de5"] ;
573 -> 615 ;
616 [label=<age &le; 57.5<br/>entropy = 0.395<br/>samples = 231<br/>value = [18, 213]<br/>class = low>, fillcolor="#4aa5e7"] ;
572 -> 616 ;
617 [label=<hours_per_week &le; 36.0<br/>entropy = 0.548<br/>samples = 71<br/>value = [9, 62]<br/>class = low>, fillcolor="#56abe9"] ;
616 -> 617 ;
618 [label=<entropy = 0.0<br/>samples = 8<br/>value = [0, 8]<br/>class = low>, fillcolor="#399de5"] ;
617 -> 618 ;
619 [label=<hours_per_week &le; 37.5<br/>entropy = 0.592<br/>samples = 63<br/>value = [9, 54]<br/>class = low>, fillcolor="#5aade9"] ;
617 -> 619 ;
620 [label=<entropy = 1.0<br/>samples = 2<br/>value = [1, 1]<br/>class = high>, fillcolor="#ffffff"] ;
619 -> 620 ;
621 [label=<age &le; 53.5<br/>entropy = 0.561<br/>samples = 61<br/>value = [8, 53]<br/>class = low>, fillcolor="#57ace9"] ;
619 -> 621 ;
622 [label=<education_degree &le; 4.5<br/>entropy = 0.75<br/>samples = 14<br/>value = [3, 11]<br/>class = low>, fillcolor="#6fb8ec"] ;
621 -> 622 ;
623 [label=<education_degree &le; 2.5<br/>entropy = 0.881<br/>samples = 10<br/>value = [3, 7]<br/>class = low>, fillcolor="#8ec7f0"] ;
622 -> 623 ;
624 [label=<entropy = 0.0<br/>samples = 2<br/>value = [0, 2]<br/>class = low>, fillcolor="#399de5"] ;
623 -> 624 ;
625 [label=<hours_per_week &le; 39.0<br/>entropy = 0.954<br/>samples = 8<br/>value = [3, 5]<br/>class = low>, fillcolor="#b0d8f5"] ;
623 -> 625 ;
626 [label=<entropy = 0.0<br/>samples = 1<br/>value = [0, 1]<br/>class = low>, fillcolor="#399de5"] ;
625 -> 626 ;
627 [label=<education_degree &le; 3.5<br/>entropy = 0.985<br/>samples = 7<br/>value = [3, 4]<br/>class = low>, fillcolor="#cee6f8"] ;
625 -> 627 ;
628 [label=<entropy = 1.0<br/>samples = 4<br/>value = [2, 2]<br/>class = high>, fillcolor="#ffffff"] ;
627 -> 628 ;
629 [label=<entropy = 0.918<br/>samples = 3<br/>value = [1, 2]<br/>class = low>, fillcolor="#9ccef2"] ;
627 -> 629 ;
630 [label=<entropy = 0.0<br/>samples = 4<br/>value = [0, 4]<br/>class = low>, fillcolor="#399de5"] ;
622 -> 630 ;
631 [label=<education_degree &le; 3.5<br/>entropy = 0.489<br/>samples = 47<br/>value = [5, 42]<br/>class = low>, fillcolor="#51a9e8"] ;
621 -> 631 ;
632 [label=<age &le; 54.5<br/>entropy = 0.323<br/>samples = 17<br/>value = [1, 16]<br/>class = low>, fillcolor="#45a3e7"] ;
631 -> 632 ;
633 [label=<education_degree &le; 1.5<br/>entropy = 0.811<br/>samples = 4<br/>value = [1, 3]<br/>class = low>, fillcolor="#7bbeee"] ;
632 -> 633 ;
634 [label=<entropy = 0.0<br/>samples = 2<br/>value = [0, 2]<br/>class = low>, fillcolor="#399de5"] ;
633 -> 634 ;
635 [label=<entropy = 1.0<br/>samples = 2<br/>value = [1, 1]<br/>class = high>, fillcolor="#ffffff"] ;
633 -> 635 ;
636 [label=<entropy = 0.0<br/>samples = 13<br/>value = [0, 13]<br/>class = low>, fillcolor="#399de5"] ;
632 -> 636 ;
637 [label=<age &le; 55.5<br/>entropy = 0.567<br/>samples = 30<br/>value = [4, 26]<br/>class = low>, fillcolor="#57ace9"] ;
631 -> 637 ;
638 [label=<entropy = 0.0<br/>samples = 9<br/>value = [0, 9]<br/>class = low>, fillcolor="#399de5"] ;
637 -> 638 ;
639 [label=<age &le; 56.5<br/>entropy = 0.702<br/>samples = 21<br/>value = [4, 17]<br/>class = low>, fillcolor="#68b4eb"] ;
637 -> 639 ;
640 [label=<education_degree &le; 4.5<br/>entropy = 0.567<br/>samples = 15<br/>value = [2, 13]<br/>class = low>, fillcolor="#57ace9"] ;
639 -> 640 ;
641 [label=<entropy = 0.592<br/>samples = 7<br/>value = [1, 6]<br/>class = low>, fillcolor="#5aade9"] ;
640 -> 641 ;
642 [label=<entropy = 0.544<br/>samples = 8<br/>value = [1, 7]<br/>class = low>, fillcolor="#55abe9"] ;
640 -> 642 ;
643 [label=<education_degree &le; 4.5<br/>entropy = 0.918<br/>samples = 6<br/>value = [2, 4]<br/>class = low>, fillcolor="#9ccef2"] ;
639 -> 643 ;
644 [label=<entropy = 0.811<br/>samples = 4<br/>value = [1, 3]<br/>class = low>, fillcolor="#7bbeee"] ;
643 -> 644 ;
645 [label=<entropy = 1.0<br/>samples = 2<br/>value = [1, 1]<br/>class = high>, fillcolor="#ffffff"] ;
643 -> 645 ;
646 [label=<hours_per_week &le; 30.5<br/>entropy = 0.312<br/>samples = 160<br/>value = [9, 151]<br/>class = low>, fillcolor="#45a3e7"] ;
616 -> 646 ;
647 [label=<age &le; 74.5<br/>entropy = 0.529<br/>samples = 25<br/>value = [3, 22]<br/>class = low>, fillcolor="#54aae9"] ;
646 -> 647 ;
648 [label=<age &le; 72.0<br/>entropy = 0.65<br/>samples = 18<br/>value = [3, 15]<br/>class = low>, fillcolor="#61b1ea"] ;
647 -> 648 ;
649 [label=<hours_per_week &le; 24.5<br/>entropy = 0.523<br/>samples = 17<br/>value = [2, 15]<br/>class = low>, fillcolor="#53aae8"] ;
648 -> 649 ;
650 [label=<entropy = 0.0<br/>samples = 5<br/>value = [0, 5]<br/>class = low>, fillcolor="#399de5"] ;
649 -> 650 ;
651 [label=<age &le; 67.0<br/>entropy = 0.65<br/>samples = 12<br/>value = [2, 10]<br/>class = low>, fillcolor="#61b1ea"] ;
649 -> 651 ;
652 [label=<age &le; 65.0<br/>entropy = 0.764<br/>samples = 9<br/>value = [2, 7]<br/>class = low>, fillcolor="#72b9ec"] ;
651 -> 652 ;
653 [label=<age &le; 61.5<br/>entropy = 0.592<br/>samples = 7<br/>value = [1, 6]<br/>class = low>, fillcolor="#5aade9"] ;
652 -> 653 ;
654 [label=<education_degree &le; 4.5<br/>entropy = 0.918<br/>samples = 3<br/>value = [1, 2]<br/>class = low>, fillcolor="#9ccef2"] ;
653 -> 654 ;
655 [label=<entropy = 1.0<br/>samples = 2<br/>value = [1, 1]<br/>class = high>, fillcolor="#ffffff"] ;
654 -> 655 ;
656 [label=<entropy = 0.0<br/>samples = 1<br/>value = [0, 1]<br/>class = low>, fillcolor="#399de5"] ;
654 -> 656 ;
657 [label=<entropy = 0.0<br/>samples = 4<br/>value = [0, 4]<br/>class = low>, fillcolor="#399de5"] ;
653 -> 657 ;
658 [label=<hours_per_week &le; 27.5<br/>entropy = 1.0<br/>samples = 2<br/>value = [1, 1]<br/>class = high>, fillcolor="#ffffff"] ;
652 -> 658 ;
659 [label=<entropy = 0.0<br/>samples = 1<br/>value = [1, 0]<br/>class = high>, fillcolor="#e58139"] ;
658 -> 659 ;
660 [label=<entropy = 0.0<br/>samples = 1<br/>value = [0, 1]<br/>class = low>, fillcolor="#399de5"] ;
658 -> 660 ;
661 [label=<entropy = 0.0<br/>samples = 3<br/>value = [0, 3]<br/>class = low>, fillcolor="#399de5"] ;
651 -> 661 ;
662 [label=<entropy = 0.0<br/>samples = 1<br/>value = [1, 0]<br/>class = high>, fillcolor="#e58139"] ;
648 -> 662 ;
663 [label=<entropy = 0.0<br/>samples = 7<br/>value = [0, 7]<br/>class = low>, fillcolor="#399de5"] ;
647 -> 663 ;
664 [label=<education_degree &le; 4.5<br/>entropy = 0.262<br/>samples = 135<br/>value = [6, 129]<br/>class = low>, fillcolor="#42a2e6"] ;
646 -> 664 ;
665 [label=<hours_per_week &le; 39.0<br/>entropy = 0.318<br/>samples = 104<br/>value = [6, 98]<br/>class = low>, fillcolor="#45a3e7"] ;
664 -> 665 ;
666 [label=<entropy = 0.0<br/>samples = 15<br/>value = [0, 15]<br/>class = low>, fillcolor="#399de5"] ;
665 -> 666 ;
667 [label=<education_degree &le; 2.5<br/>entropy = 0.356<br/>samples = 89<br/>value = [6, 83]<br/>class = low>, fillcolor="#47a4e7"] ;
665 -> 667 ;
668 [label=<entropy = 0.0<br/>samples = 7<br/>value = [0, 7]<br/>class = low>, fillcolor="#399de5"] ;
667 -> 668 ;
669 [label=<age &le; 72.0<br/>entropy = 0.378<br/>samples = 82<br/>value = [6, 76]<br/>class = low>, fillcolor="#49a5e7"] ;
667 -> 669 ;
670 [label=<age &le; 70.0<br/>entropy = 0.395<br/>samples = 77<br/>value = [6, 71]<br/>class = low>, fillcolor="#4aa5e7"] ;
669 -> 670 ;
671 [label=<age &le; 66.5<br/>entropy = 0.353<br/>samples = 75<br/>value = [5, 70]<br/>class = low>, fillcolor="#47a4e7"] ;
670 -> 671 ;
672 [label=<age &le; 65.5<br/>entropy = 0.387<br/>samples = 66<br/>value = [5, 61]<br/>class = low>, fillcolor="#49a5e7"] ;
671 -> 672 ;
673 [label=<age &le; 61.5<br/>entropy = 0.337<br/>samples = 64<br/>value = [4, 60]<br/>class = low>, fillcolor="#46a4e7"] ;
672 -> 673 ;
674 [label=<age &le; 60.5<br/>entropy = 0.433<br/>samples = 45<br/>value = [4, 41]<br/>class = low>, fillcolor="#4ca7e8"] ;
673 -> 674 ;
675 [label=<education_degree &le; 3.5<br/>entropy = 0.353<br/>samples = 30<br/>value = [2, 28]<br/>class = low>, fillcolor="#47a4e7"] ;
674 -> 675 ;
676 [label=<entropy = 0.0<br/>samples = 8<br/>value = [0, 8]<br/>class = low>, fillcolor="#399de5"] ;
675 -> 676 ;
677 [label=<age &le; 58.5<br/>entropy = 0.439<br/>samples = 22<br/>value = [2, 20]<br/>class = low>, fillcolor="#4da7e8"] ;
675 -> 677 ;
678 [label=<entropy = 0.811<br/>samples = 4<br/>value = [1, 3]<br/>class = low>, fillcolor="#7bbeee"] ;
677 -> 678 ;
679 [label=<age &le; 59.5<br/>entropy = 0.31<br/>samples = 18<br/>value = [1, 17]<br/>class = low>, fillcolor="#45a3e7"] ;
677 -> 679 ;
680 [label=<entropy = 0.0<br/>samples = 6<br/>value = [0, 6]<br/>class = low>, fillcolor="#399de5"] ;
679 -> 680 ;
681 [label=<entropy = 0.414<br/>samples = 12<br/>value = [1, 11]<br/>class = low>, fillcolor="#4ba6e7"] ;
679 -> 681 ;
682 [label=<education_degree &le; 3.5<br/>entropy = 0.567<br/>samples = 15<br/>value = [2, 13]<br/>class = low>, fillcolor="#57ace9"] ;
674 -> 682 ;
683 [label=<entropy = 0.811<br/>samples = 4<br/>value = [1, 3]<br/>class = low>, fillcolor="#7bbeee"] ;
682 -> 683 ;
684 [label=<entropy = 0.439<br/>samples = 11<br/>value = [1, 10]<br/>class = low>, fillcolor="#4da7e8"] ;
682 -> 684 ;
685 [label=<entropy = 0.0<br/>samples = 19<br/>value = [0, 19]<br/>class = low>, fillcolor="#399de5"] ;
673 -> 685 ;
686 [label=<education_degree &le; 3.5<br/>entropy = 1.0<br/>samples = 2<br/>value = [1, 1]<br/>class = high>, fillcolor="#ffffff"] ;
672 -> 686 ;
687 [label=<entropy = 0.0<br/>samples = 1<br/>value = [0, 1]<br/>class = low>, fillcolor="#399de5"] ;
686 -> 687 ;
688 [label=<entropy = 0.0<br/>samples = 1<br/>value = [1, 0]<br/>class = high>, fillcolor="#e58139"] ;
686 -> 688 ;
689 [label=<entropy = 0.0<br/>samples = 9<br/>value = [0, 9]<br/>class = low>, fillcolor="#399de5"] ;
671 -> 689 ;
690 [label=<education_degree &le; 3.5<br/>entropy = 1.0<br/>samples = 2<br/>value = [1, 1]<br/>class = high>, fillcolor="#ffffff"] ;
670 -> 690 ;
691 [label=<entropy = 0.0<br/>samples = 1<br/>value = [0, 1]<br/>class = low>, fillcolor="#399de5"] ;
690 -> 691 ;
692 [label=<entropy = 0.0<br/>samples = 1<br/>value = [1, 0]<br/>class = high>, fillcolor="#e58139"] ;
690 -> 692 ;
693 [label=<entropy = 0.0<br/>samples = 5<br/>value = [0, 5]<br/>class = low>, fillcolor="#399de5"] ;
669 -> 693 ;
694 [label=<entropy = 0.0<br/>samples = 31<br/>value = [0, 31]<br/>class = low>, fillcolor="#399de5"] ;
664 -> 694 ;
695 [label=<hours_per_week &le; 23.0<br/>entropy = 0.469<br/>samples = 460<br/>value = [46, 414]<br/>class = low>, fillcolor="#4fa8e8"] ;
571 -> 695 ;
696 [label=<entropy = 0.0<br/>samples = 1<br/>value = [1, 0]<br/>class = high>, fillcolor="#e58139"] ;
695 -> 696 ;
697 [label=<hours_per_week &le; 29.0<br/>entropy = 0.463<br/>samples = 459<br/>value = [45, 414]<br/>class = low>, fillcolor="#4fa8e8"] ;
695 -> 697 ;
698 [label=<entropy = 0.0<br/>samples = 19<br/>value = [0, 19]<br/>class = low>, fillcolor="#399de5"] ;
697 -> 698 ;
699 [label=<age &le; 65.5<br/>entropy = 0.476<br/>samples = 440<br/>value = [45, 395]<br/>class = low>, fillcolor="#50a8e8"] ;
697 -> 699 ;
700 [label=<age &le; 63.5<br/>entropy = 0.486<br/>samples = 427<br/>value = [45, 382]<br/>class = low>, fillcolor="#50a9e8"] ;
699 -> 700 ;
701 [label=<age &le; 53.5<br/>entropy = 0.466<br/>samples = 414<br/>value = [41, 373]<br/>class = low>, fillcolor="#4fa8e8"] ;
700 -> 701 ;
702 [label=<age &le; 52.5<br/>entropy = 0.431<br/>samples = 283<br/>value = [25, 258]<br/>class = low>, fillcolor="#4ca6e8"] ;
701 -> 702 ;
703 [label=<hours_per_week &le; 39.5<br/>entropy = 0.446<br/>samples = 269<br/>value = [25, 244]<br/>class = low>, fillcolor="#4da7e8"] ;
702 -> 703 ;
704 [label=<age &le; 50.0<br/>entropy = 0.323<br/>samples = 51<br/>value = [3, 48]<br/>class = low>, fillcolor="#45a3e7"] ;
703 -> 704 ;
705 [label=<age &le; 45.5<br/>entropy = 0.154<br/>samples = 45<br/>value = [1, 44]<br/>class = low>, fillcolor="#3d9fe6"] ;
704 -> 705 ;
706 [label=<entropy = 0.0<br/>samples = 28<br/>value = [0, 28]<br/>class = low>, fillcolor="#399de5"] ;
705 -> 706 ;
707 [label=<age &le; 46.5<br/>entropy = 0.323<br/>samples = 17<br/>value = [1, 16]<br/>class = low>, fillcolor="#45a3e7"] ;
705 -> 707 ;
708 [label=<hours_per_week &le; 32.5<br/>entropy = 0.811<br/>samples = 4<br/>value = [1, 3]<br/>class = low>, fillcolor="#7bbeee"] ;
707 -> 708 ;
709 [label=<entropy = 0.0<br/>samples = 2<br/>value = [0, 2]<br/>class = low>, fillcolor="#399de5"] ;
708 -> 709 ;
710 [label=<education_degree &le; 6.5<br/>entropy = 1.0<br/>samples = 2<br/>value = [1, 1]<br/>class = high>, fillcolor="#ffffff"] ;
708 -> 710 ;
711 [label=<entropy = 0.0<br/>samples = 1<br/>value = [0, 1]<br/>class = low>, fillcolor="#399de5"] ;
710 -> 711 ;
712 [label=<entropy = 0.0<br/>samples = 1<br/>value = [1, 0]<br/>class = high>, fillcolor="#e58139"] ;
710 -> 712 ;
713 [label=<entropy = 0.0<br/>samples = 13<br/>value = [0, 13]<br/>class = low>, fillcolor="#399de5"] ;
707 -> 713 ;
714 [label=<hours_per_week &le; 32.5<br/>entropy = 0.918<br/>samples = 6<br/>value = [2, 4]<br/>class = low>, fillcolor="#9ccef2"] ;
704 -> 714 ;
715 [label=<education_degree &le; 6.5<br/>entropy = 0.918<br/>samples = 3<br/>value = [2, 1]<br/>class = high>, fillcolor="#f2c09c"] ;
714 -> 715 ;
716 [label=<entropy = 0.0<br/>samples = 1<br/>value = [1, 0]<br/>class = high>, fillcolor="#e58139"] ;
715 -> 716 ;
717 [label=<entropy = 1.0<br/>samples = 2<br/>value = [1, 1]<br/>class = high>, fillcolor="#ffffff"] ;
715 -> 717 ;
718 [label=<entropy = 0.0<br/>samples = 3<br/>value = [0, 3]<br/>class = low>, fillcolor="#399de5"] ;
714 -> 718 ;
719 [label=<age &le; 50.5<br/>entropy = 0.472<br/>samples = 218<br/>value = [22, 196]<br/>class = low>, fillcolor="#4fa8e8"] ;
703 -> 719 ;
720 [label=<education_degree &le; 7.5<br/>entropy = 0.519<br/>samples = 189<br/>value = [22, 167]<br/>class = low>, fillcolor="#53aae8"] ;
719 -> 720 ;
721 [label=<age &le; 43.5<br/>entropy = 0.489<br/>samples = 160<br/>value = [17, 143]<br/>class = low>, fillcolor="#51a9e8"] ;
720 -> 721 ;
722 [label=<age &le; 41.5<br/>entropy = 0.42<br/>samples = 94<br/>value = [8, 86]<br/>class = low>, fillcolor="#4ba6e7"] ;
721 -> 722 ;
723 [label=<age &le; 40.5<br/>entropy = 0.485<br/>samples = 76<br/>value = [8, 68]<br/>class = low>, fillcolor="#50a9e8"] ;
722 -> 723 ;
724 [label=<age &le; 38.5<br/>entropy = 0.439<br/>samples = 66<br/>value = [6, 60]<br/>class = low>, fillcolor="#4da7e8"] ;
723 -> 724 ;
725 [label=<age &le; 37.5<br/>entropy = 0.519<br/>samples = 43<br/>value = [5, 38]<br/>class = low>, fillcolor="#53aae8"] ;
724 -> 725 ;
726 [label=<education_degree &le; 6.5<br/>entropy = 0.469<br/>samples = 30<br/>value = [3, 27]<br/>class = low>, fillcolor="#4fa8e8"] ;
725 -> 726 ;
727 [label=<entropy = 0.0<br/>samples = 13<br/>value = [0, 13]<br/>class = low>, fillcolor="#399de5"] ;
726 -> 727 ;
728 [label=<age &le; 36.5<br/>entropy = 0.672<br/>samples = 17<br/>value = [3, 14]<br/>class = low>, fillcolor="#63b2eb"] ;
726 -> 728 ;
729 [label=<entropy = 0.764<br/>samples = 9<br/>value = [2, 7]<br/>class = low>, fillcolor="#72b9ec"] ;
728 -> 729 ;
730 [label=<entropy = 0.544<br/>samples = 8<br/>value = [1, 7]<br/>class = low>, fillcolor="#55abe9"] ;
728 -> 730 ;
731 [label=<education_degree &le; 6.5<br/>entropy = 0.619<br/>samples = 13<br/>value = [2, 11]<br/>class = low>, fillcolor="#5dafea"] ;
725 -> 731 ;
732 [label=<entropy = 0.811<br/>samples = 8<br/>value = [2, 6]<br/>class = low>, fillcolor="#7bbeee"] ;
731 -> 732 ;
733 [label=<entropy = 0.0<br/>samples = 5<br/>value = [0, 5]<br/>class = low>, fillcolor="#399de5"] ;
731 -> 733 ;
734 [label=<age &le; 39.5<br/>entropy = 0.258<br/>samples = 23<br/>value = [1, 22]<br/>class = low>, fillcolor="#42a1e6"] ;
724 -> 734 ;
735 [label=<entropy = 0.0<br/>samples = 14<br/>value = [0, 14]<br/>class = low>, fillcolor="#399de5"] ;
734 -> 735 ;
736 [label=<education_degree &le; 6.5<br/>entropy = 0.503<br/>samples = 9<br/>value = [1, 8]<br/>class = low>, fillcolor="#52a9e8"] ;
734 -> 736 ;
737 [label=<entropy = 0.544<br/>samples = 8<br/>value = [1, 7]<br/>class = low>, fillcolor="#55abe9"] ;
736 -> 737 ;
738 [label=<entropy = 0.0<br/>samples = 1<br/>value = [0, 1]<br/>class = low>, fillcolor="#399de5"] ;
736 -> 738 ;
739 [label=<education_degree &le; 6.5<br/>entropy = 0.722<br/>samples = 10<br/>value = [2, 8]<br/>class = low>, fillcolor="#6ab6ec"] ;
723 -> 739 ;
740 [label=<entropy = 0.918<br/>samples = 3<br/>value = [1, 2]<br/>class = low>, fillcolor="#9ccef2"] ;
739 -> 740 ;
741 [label=<entropy = 0.592<br/>samples = 7<br/>value = [1, 6]<br/>class = low>, fillcolor="#5aade9"] ;
739 -> 741 ;
742 [label=<entropy = 0.0<br/>samples = 18<br/>value = [0, 18]<br/>class = low>, fillcolor="#399de5"] ;
722 -> 742 ;
743 [label=<hours_per_week &le; 41.0<br/>entropy = 0.575<br/>samples = 66<br/>value = [9, 57]<br/>class = low>, fillcolor="#58ace9"] ;
721 -> 743 ;
744 [label=<age &le; 46.5<br/>entropy = 0.544<br/>samples = 64<br/>value = [8, 56]<br/>class = low>, fillcolor="#55abe9"] ;
743 -> 744 ;
745 [label=<age &le; 44.5<br/>entropy = 0.722<br/>samples = 25<br/>value = [5, 20]<br/>class = low>, fillcolor="#6ab6ec"] ;
744 -> 745 ;
746 [label=<education_degree &le; 6.5<br/>entropy = 0.918<br/>samples = 6<br/>value = [2, 4]<br/>class = low>, fillcolor="#9ccef2"] ;
745 -> 746 ;
747 [label=<entropy = 0.811<br/>samples = 4<br/>value = [1, 3]<br/>class = low>, fillcolor="#7bbeee"] ;
746 -> 747 ;
748 [label=<entropy = 1.0<br/>samples = 2<br/>value = [1, 1]<br/>class = high>, fillcolor="#ffffff"] ;
746 -> 748 ;
749 [label=<age &le; 45.5<br/>entropy = 0.629<br/>samples = 19<br/>value = [3, 16]<br/>class = low>, fillcolor="#5eafea"] ;
745 -> 749 ;
750 [label=<entropy = 0.0<br/>samples = 7<br/>value = [0, 7]<br/>class = low>, fillcolor="#399de5"] ;
749 -> 750 ;
751 [label=<education_degree &le; 6.5<br/>entropy = 0.811<br/>samples = 12<br/>value = [3, 9]<br/>class = low>, fillcolor="#7bbeee"] ;
749 -> 751 ;
752 [label=<entropy = 0.722<br/>samples = 5<br/>value = [1, 4]<br/>class = low>, fillcolor="#6ab6ec"] ;
751 -> 752 ;
753 [label=<entropy = 0.863<br/>samples = 7<br/>value = [2, 5]<br/>class = low>, fillcolor="#88c4ef"] ;
751 -> 753 ;
754 [label=<education_degree &le; 6.5<br/>entropy = 0.391<br/>samples = 39<br/>value = [3, 36]<br/>class = low>, fillcolor="#49a5e7"] ;
744 -> 754 ;
755 [label=<age &le; 49.5<br/>entropy = 0.619<br/>samples = 13<br/>value = [2, 11]<br/>class = low>, fillcolor="#5dafea"] ;
754 -> 755 ;
756 [label=<entropy = 0.0<br/>samples = 7<br/>value = [0, 7]<br/>class = low>, fillcolor="#399de5"] ;
755 -> 756 ;
757 [label=<entropy = 0.918<br/>samples = 6<br/>value = [2, 4]<br/>class = low>, fillcolor="#9ccef2"] ;
755 -> 757 ;
758 [label=<age &le; 47.5<br/>entropy = 0.235<br/>samples = 26<br/>value = [1, 25]<br/>class = low>, fillcolor="#41a1e6"] ;
754 -> 758 ;
759 [label=<entropy = 0.544<br/>samples = 8<br/>value = [1, 7]<br/>class = low>, fillcolor="#55abe9"] ;
758 -> 759 ;
760 [label=<entropy = 0.0<br/>samples = 18<br/>value = [0, 18]<br/>class = low>, fillcolor="#399de5"] ;
758 -> 760 ;
761 [label=<age &le; 46.5<br/>entropy = 1.0<br/>samples = 2<br/>value = [1, 1]<br/>class = high>, fillcolor="#ffffff"] ;
743 -> 761 ;
762 [label=<entropy = 0.0<br/>samples = 1<br/>value = [0, 1]<br/>class = low>, fillcolor="#399de5"] ;
761 -> 762 ;
763 [label=<entropy = 0.0<br/>samples = 1<br/>value = [1, 0]<br/>class = high>, fillcolor="#e58139"] ;
761 -> 763 ;
